{"learner":{"attributes":{"scikit_learn":"{\"_estimator_type\": \"classifier\"}"},"feature_names":["HighBP","HighChol","CholCheck","BMI","Smoker","Stroke","HeartDiseaseorAttack","PhysActivity","Veggies","HvyAlcoholConsump","GenHlth","MentHlth","PhysHlth","DiffWalk","Sex","Age","Education","Income"],"feature_types":["float","float","float","float","float","float","float","float","float","float","float","float","float","float","float","float","float","float"],"gradient_booster":{"model":{"gbtree_model_param":{"num_parallel_tree":"1","num_trees":"500"},"iteration_indptr":[0,1,2,3,4,5,6,7,8,9,10,11,12,13,14,15,16,17,18,19,20,21,22,23,24,25,26,27,28,29,30,31,32,33,34,35,36,37,38,39,40,41,42,43,44,45,46,47,48,49,50,51,52,53,54,55,56,57,58,59,60,61,62,63,64,65,66,67,68,69,70,71,72,73,74,75,76,77,78,79,80,81,82,83,84,85,86,87,88,89,90,91,92,93,94,95,96,97,98,99,100,101,102,103,104,105,106,107,108,109,110,111,112,113,114,115,116,117,118,119,120,121,122,123,124,125,126,127,128,129,130,131,132,133,134,135,136,137,138,139,140,141,142,143,144,145,146,147,148,149,150,151,152,153,154,155,156,157,158,159,160,161,162,163,164,165,166,167,168,169,170,171,172,173,174,175,176,177,178,179,180,181,182,183,184,185,186,187,188,189,190,191,192,193,194,195,196,197,198,199,200,201,202,203,204,205,206,207,208,209,210,211,212,213,214,215,216,217,218,219,220,221,222,223,224,225,226,227,228,229,230,231,232,233,234,235,236,237,238,239,240,241,242,243,244,245,246,247,248,249,250,251,252,253,254,255,256,257,258,259,260,261,262,263,264,265,266,267,268,269,270,271,272,273,274,275,276,277,278,279,280,281,282,283,284,285,286,287,288,289,290,291,292,293,294,295,296,297,298,299,300,301,302,303,304,305,306,307,308,309,310,311,312,313,314,315,316,317,318,319,320,321,322,323,324,325,326,327,328,329,330,331,332,333,334,335,336,337,338,339,340,341,342,343,344,345,346,347,348,349,350,351,352,353,354,355,356,357,358,359,360,361,362,363,364,365,366,367,368,369,370,371,372,373,374,375,376,377,378,379,380,381,382,383,384,385,386,387,388,389,390,391,392,393,394,395,396,397,398,399,400,401,402,403,404,405,406,407,408,409,410,411,412,413,414,415,416,417,418,419,420,421,422,423,424,425,426,427,428,429,430,431,432,433,434,435,436,437,438,439,440,441,442,443,444,445,446,447,448,449,450,451,452,453,454,455,456,457,458,459,460,461,462,463,464,465,466,467,468,469,470,471,472,473,474,475,476,477,478,479,480,481,482,483,484,485,486,487,488,489,490,491,492,493,494,495,496,497,498,499,500],"tree_info":[0,0,0,0,0,0,0,0,0,0,0,0,0,0,0,0,0,0,0,0,0,0,0,0,0,0,0,0,0,0,0,0,0,0,0,0,0,0,0,0,0,0,0,0,0,0,0,0,0,0,0,0,0,0,0,0,0,0,0,0,0,0,0,0,0,0,0,0,0,0,0,0,0,0,0,0,0,0,0,0,0,0,0,0,0,0,0,0,0,0,0,0,0,0,0,0,0,0,0,0,0,0,0,0,0,0,0,0,0,0,0,0,0,0,0,0,0,0,0,0,0,0,0,0,0,0,0,0,0,0,0,0,0,0,0,0,0,0,0,0,0,0,0,0,0,0,0,0,0,0,0,0,0,0,0,0,0,0,0,0,0,0,0,0,0,0,0,0,0,0,0,0,0,0,0,0,0,0,0,0,0,0,0,0,0,0,0,0,0,0,0,0,0,0,0,0,0,0,0,0,0,0,0,0,0,0,0,0,0,0,0,0,0,0,0,0,0,0,0,0,0,0,0,0,0,0,0,0,0,0,0,0,0,0,0,0,0,0,0,0,0,0,0,0,0,0,0,0,0,0,0,0,0,0,0,0,0,0,0,0,0,0,0,0,0,0,0,0,0,0,0,0,0,0,0,0,0,0,0,0,0,0,0,0,0,0,0,0,0,0,0,0,0,0,0,0,0,0,0,0,0,0,0,0,0,0,0,0,0,0,0,0,0,0,0,0,0,0,0,0,0,0,0,0,0,0,0,0,0,0,0,0,0,0,0,0,0,0,0,0,0,0,0,0,0,0,0,0,0,0,0,0,0,0,0,0,0,0,0,0,0,0,0,0,0,0,0,0,0,0,0,0,0,0,0,0,0,0,0,0,0,0,0,0,0,0,0,0,0,0,0,0,0,0,0,0,0,0,0,0,0,0,0,0,0,0,0,0,0,0,0,0,0,0,0,0,0,0,0,0,0,0,0,0,0,0,0,0,0,0,0,0,0,0,0,0,0,0,0,0,0,0,0,0,0,0,0,0,0,0,0,0,0,0,0,0,0,0,0,0,0,0,0,0,0,0,0,0,0,0,0,0,0,0,0,0,0,0,0,0,0,0,0,0,0,0,0,0,0,0,0,0,0,0,0,0,0,0,0,0],"trees":[{"base_weights":[7.2459225E-9,-8.293169E-1,6.094762E-1,-1.3681844E0,-2.3795778E-1,-1.6249236E-1,8.90347E-1,-1.5974252E0,-9.911903E-1,-1.0141288E0,-7.6773018E-3,-4.767865E-1,2.5342783E-1,4.412815E-1,1.0753562E0,-1.7325292E0,-1.3180182E0,-1.1515516E0,-3.0070043E-1,-1.2544351E0,-3.5972768E-1,-4.3450114E-1,3.511588E-1,-1.0166397E0,-2.8225037E-1,-1.884075E-1,5.6144905E-1,7.899684E-3,6.4635354E-1,8.264108E-1,1.3175408E0,-1.8876394E0,-1.6351821E0,-1.5341951E0,-9.611696E-1,-1.5026726E0,-9.7396594E-1,-9.48474E-1,-1.2820667E-1,-1.3643861E0,-4.157314E-1,-6.846299E-1,3.272756E-1,-6.8512374E-1,-1.156432E-1,9.463178E-2,7.57E-1,-1.3252839E0,-6.399387E-1,-8.288822E-1,-1.2835492E-1,-9.288903E-1,1.1112963E-1,1.9546671E-1,7.123875E-1,-1.3724688E-1,6.181268E-1,4.1861278E-1,8.8222736E-1,6.6692315E-2,9.378138E-1,1.0109086E0,1.4267534E0,-4.2479226E-1,-5.700216E-1,-5.165777E-1,-4.0565428E-1,-5.247384E-1,-4.2837104E-1,-4.284942E-1,-2.4718277E-1,-5.123769E-1,-3.6488432E-1,-3.6174762E-1,-2.194929E-1,-3.3427775E-1,6.849843E-2,-1.2543993E-1,5.982299E-2,-4.5459595E-1,-2.44389E-1,2.5542596E-2,-2.1595724E-1,-2.9777062E-1,-1.2363827E-1,2.8492272E-2,2.6249474E-1,-2.6353803E-1,-8.216573E-2,-9.387353E-2,6.258822E-2,-8.08072E-2,1.2651062E-1,1.6178629E-1,2.8948084E-1,-5.2197087E-1,-3.442675E-1,1.4170194E-1,-2.1835573E-1,-1.4959471E-1,-3.1099978E-1,-1.5407956E-1,-7.646427E-3,-5.060219E-1,-2.408394E-1,-5.9372023E-2,9.3028784E-2,-7.488025E-2,1.4196761E-1,1.6429448E-1,2.8313267E-1,-3.218092E-1,-1.8313084E-2,-1.7163138E-1,2.0279764E-1,1.3987832E-1,-1.731908E-1,1.8598595E-1,2.977554E-1,-1.1653217E-1,1.446176E-1,1.9852649E-1,3.1961012E-1,1.21585056E-1,3.3543903E-1,3.776931E-1,4.5971572E-1],"categories":[],"categories_nodes":[],"categories_segments":[],"categories_sizes":[],"default_left":[0,0,0,0,0,0,0,0,0,0,0,0,0,0,0,0,0,0,0,0,0,0,0,0,0,0,0,0,0,0,0,0,0,0,0,0,0,0,0,0,0,0,0,0,0,0,0,0,0,0,0,0,0,0,0,0,0,0,0,0,0,0,0,0,0,0,0,0,0,0,0,0,0,0,0,0,0,0,0,0,0,0,0,0,0,0,0,0,0,0,0,0,0,0,0,0,0,0,0,0,0,0,0,0,0,0,0,0,0,0,0,0,0,0,0,0,0,0,0,0,0,0,0,0,0,0,0],"id":0,"left_children":[1,3,5,7,9,11,13,15,17,19,21,23,25,27,29,31,33,35,37,39,41,43,45,47,49,51,53,55,57,59,61,63,65,67,69,71,73,75,77,79,81,83,85,87,89,91,93,95,97,99,101,103,105,107,109,111,113,115,117,119,121,123,125,-1,-1,-1,-1,-1,-1,-1,-1,-1,-1,-1,-1,-1,-1,-1,-1,-1,-1,-1,-1,-1,-1,-1,-1,-1,-1,-1,-1,-1,-1,-1,-1,-1,-1,-1,-1,-1,-1,-1,-1,-1,-1,-1,-1,-1,-1,-1,-1,-1,-1,-1,-1,-1,-1,-1,-1,-1,-1,-1,-1,-1,-1,-1,-1],"loss_changes":[3.930004E4,1.0495279E4,9.71741E3,1.4877109E3,2.8069675E3,1.5631223E3,2.7296387E3,4.0218945E2,7.214883E2,5.646106E2,1.8552622E3,7.149844E2,7.0058484E2,8.5227905E2,1.401998E3,1.0591992E2,2.682539E2,3.2838965E2,1.3731476E2,2.4175488E2,2.1595543E2,4.4203943E2,6.8504504E2,2.0886792E2,4.2118735E2,4.6921454E2,1.6740607E2,2.729984E2,3.493086E2,9.714204E2,3.935332E2,1.3594727E1,1.0674121E2,4.7208496E1,8.355371E1,1.0226001E2,1.9666382E2,5.06868E1,9.245599E1,1.915E2,4.667386E1,5.468051E1,3.9486366E1,2.4603308E2,1.5589224E2,4.8027203E2,1.1485083E2,7.09917E1,7.996481E1,7.496179E1,1.5489581E2,5.6865234E1,9.270813E1,1.0977025E2,8.1323975E1,1.774326E2,4.1176804E1,1.575188E2,9.185474E1,2.7789706E2,3.517871E2,2.0091309E2,1.5216016E2,0E0,0E0,0E0,0E0,0E0,0E0,0E0,0E0,0E0,0E0,0E0,0E0,0E0,0E0,0E0,0E0,0E0,0E0,0E0,0E0,0E0,0E0,0E0,0E0,0E0,0E0,0E0,0E0,0E0,0E0,0E0,0E0,0E0,0E0,0E0,0E0,0E0,0E0,0E0,0E0,0E0,0E0,0E0,0E0,0E0,0E0,0E0,0E0,0E0,0E0,0E0,0E0,0E0,0E0,0E0,0E0,0E0,0E0,0E0,0E0,0E0,0E0,0E0,0E0],"parents":[2147483647,0,0,1,1,2,2,3,3,4,4,5,5,6,6,7,7,8,8,9,9,10,10,11,11,12,12,13,13,14,14,15,15,16,16,17,17,18,18,19,19,20,20,21,21,22,22,23,23,24,24,25,25,26,26,27,27,28,28,29,29,30,30,31,31,32,32,33,33,34,34,35,35,36,36,37,37,38,38,39,39,40,40,41,41,42,42,43,43,44,44,45,45,46,46,47,47,48,48,49,49,50,50,51,51,52,52,53,53,54,54,55,55,56,56,57,57,58,58,59,59,60,60,61,61,62,62],"right_children":[2,4,6,8,10,12,14,16,18,20,22,24,26,28,30,32,34,36,38,40,42,44,46,48,50,52,54,56,58,60,62,64,66,68,70,72,74,76,78,80,82,84,86,88,90,92,94,96,98,100,102,104,106,108,110,112,114,116,118,120,122,124,126,-1,-1,-1,-1,-1,-1,-1,-1,-1,-1,-1,-1,-1,-1,-1,-1,-1,-1,-1,-1,-1,-1,-1,-1,-1,-1,-1,-1,-1,-1,-1,-1,-1,-1,-1,-1,-1,-1,-1,-1,-1,-1,-1,-1,-1,-1,-1,-1,-1,-1,-1,-1,-1,-1,-1,-1,-1,-1,-1,-1,-1,-1,-1,-1],"split_conditions":[1E0,3E0,3E0,9E0,6E0,2.0930232E-1,1.8604651E-1,1.9767442E-1,2.2093023E-1,4E0,1.8604651E-1,9E0,1E0,1E0,4E0,2E0,7E0,2E0,2E0,3.139535E-1,1E0,1E0,4E0,1E0,1.3953489E-1,8E0,9E0,1E0,4E0,7E0,1E0,2E0,1E0,4E0,2E0,1E0,1.627907E-1,1E0,1E0,1E0,5E0,1.9767442E-1,2.9069766E-1,1.1E1,4E0,9E0,2.4418604E-1,6E0,3E0,6E0,2E0,4E0,1E1,2.4418604E-1,2.5581396E-1,6E0,9.3023255E-2,1E0,1.3953489E-1,1E0,1E0,7E0,2.4418604E-1,-4.2479226E-1,-5.700216E-1,-5.165777E-1,-4.0565428E-1,-5.247384E-1,-4.2837104E-1,-4.284942E-1,-2.4718277E-1,-5.123769E-1,-3.6488432E-1,-3.6174762E-1,-2.194929E-1,-3.3427775E-1,6.849843E-2,-1.2543993E-1,5.982299E-2,-4.5459595E-1,-2.44389E-1,2.5542596E-2,-2.1595724E-1,-2.9777062E-1,-1.2363827E-1,2.8492272E-2,2.6249474E-1,-2.6353803E-1,-8.216573E-2,-9.387353E-2,6.258822E-2,-8.08072E-2,1.2651062E-1,1.6178629E-1,2.8948084E-1,-5.2197087E-1,-3.442675E-1,1.4170194E-1,-2.1835573E-1,-1.4959471E-1,-3.1099978E-1,-1.5407956E-1,-7.646427E-3,-5.060219E-1,-2.408394E-1,-5.9372023E-2,9.3028784E-2,-7.488025E-2,1.4196761E-1,1.6429448E-1,2.8313267E-1,-3.218092E-1,-1.8313084E-2,-1.7163138E-1,2.0279764E-1,1.3987832E-1,-1.731908E-1,1.8598595E-1,2.977554E-1,-1.1653217E-1,1.446176E-1,1.9852649E-1,3.1961012E-1,1.21585056E-1,3.3543903E-1,3.776931E-1,4.5971572E-1],"split_indices":[0,10,10,15,15,3,3,3,3,10,3,15,1,1,10,10,15,10,10,3,1,1,10,1,3,15,15,6,10,15,1,17,1,15,10,14,3,13,14,1,17,3,3,15,10,15,3,15,17,17,10,15,15,3,3,15,3,9,3,1,1,15,3,0,0,0,0,0,0,0,0,0,0,0,0,0,0,0,0,0,0,0,0,0,0,0,0,0,0,0,0,0,0,0,0,0,0,0,0,0,0,0,0,0,0,0,0,0,0,0,0,0,0,0,0,0,0,0,0,0,0,0,0,0,0,0,0],"split_type":[0,0,0,0,0,0,0,0,0,0,0,0,0,0,0,0,0,0,0,0,0,0,0,0,0,0,0,0,0,0,0,0,0,0,0,0,0,0,0,0,0,0,0,0,0,0,0,0,0,0,0,0,0,0,0,0,0,0,0,0,0,0,0,0,0,0,0,0,0,0,0,0,0,0,0,0,0,0,0,0,0,0,0,0,0,0,0,0,0,0,0,0,0,0,0,0,0,0,0,0,0,0,0,0,0,0,0,0,0,0,0,0,0,0,0,0,0,0,0,0,0,0,0,0,0,0,0],"sum_hessian":[7.775074E4,3.2935246E4,4.4815496E4,1.7231748E4,1.5703498E4,1.1955749E4,3.2859746E4,1.0713749E4,6.517999E3,3.5922495E3,1.2111249E4,6.809749E3,5.1459995E3,9.588749E3,2.3270998E4,7.218249E3,3.4954995E3,5.2889995E3,1.2289999E3,2.6267498E3,9.654999E2,5.5314995E3,6.579749E3,1.8027498E3,5.0069995E3,2.1139998E3,3.0319998E3,3.0802495E3,6.508499E3,1.1477499E4,1.1793499E4,2.7762498E3,4.4419995E3,2.1747498E3,1.3207499E3,1.7739998E3,3.5149995E3,2.5749997E2,9.714999E2,2.3217498E3,3.0499997E2,6.5549994E2,3.0999997E2,3.0964995E3,2.4349998E3,4.0322495E3,2.5474998E3,9.894999E2,8.132499E2,1.0989999E3,3.9079995E3,6.0824994E2,1.5057499E3,8.859999E2,2.1459998E3,2.4889998E3,5.9124994E2,3.3127495E3,3.1957495E3,1.4679999E3,1.0009499E4,3.0999995E3,8.693499E3,7.424999E1,2.7019998E3,3.3959995E3,1.0459999E3,7.1449994E2,1.4602499E3,2.9774997E2,1.0229999E3,1.0304999E3,7.4349994E2,1.7942498E3,1.7207498E3,2.2574997E2,3.1749996E1,5.1524994E2,4.5624994E2,1.8202498E3,5.0149994E2,1.15499985E2,1.8949998E2,3.0649997E2,3.4899997E2,2.1849997E2,9.149999E1,2.1054998E3,9.909999E2,1.5139999E3,9.209999E2,1.9084998E3,2.1237498E3,1.2462499E3,1.3012499E3,2.9424997E2,6.9524994E2,5.9249992E1,7.5399994E2,4.2574994E2,6.7324994E2,8.227499E2,3.0852495E3,8.499999E1,5.2324994E2,5.8974994E2,9.159999E2,3.4049997E2,5.4549994E2,1.2554999E3,8.904999E2,1.8649998E2,2.3024998E3,2.6999996E1,5.6424994E2,3.1619995E3,1.5074998E2,9.479999E2,2.2477498E3,7.0049994E2,7.6749994E2,3.1652495E3,6.844249E3,4.6699994E2,2.6329998E3,3.3637495E3,5.3297495E3],"tree_param":{"num_deleted":"0","num_feature":"18","num_nodes":"127","size_leaf_vector":"1"}},{"base_weights":[-8.5306895E-4,-6.030642E-1,4.3708226E-1,-1.0115246E0,-1.6973831E-1,-1.156452E-1,6.409483E-1,-1.1587287E0,-6.1158216E-1,-6.418632E-1,4.4107974E-2,-4.2200568E-1,1.10040925E-1,3.9971805E-1,8.620163E-1,-1.2614036E0,-8.7058336E-1,-7.9461783E-1,-1.725663E-1,-8.376835E-1,-1.6950665E-1,-3.6040568E-1,2.8409678E-1,-7.443848E-1,-2.222653E-1,-4.0663877E-1,2.4902329E-1,2.007117E-1,6.3078594E-1,5.8869714E-1,9.8184764E-1,-1.3741735E0,-1.0716084E0,-9.813803E-1,-4.2049316E-1,-9.710969E-1,-5.446259E-1,-6.6029084E-1,-2.1778367E-2,-9.748675E-1,-4.436189E-1,-4.407184E-1,2.9891267E-1,-6.160181E-1,-1.4045127E-1,1.0209121E-1,5.753201E-1,-9.782909E-1,-4.9309966E-1,-5.369818E-1,-9.120685E-2,-7.310957E-1,-4.3106697E-2,1.5252014E-2,3.918662E-1,-2.007686E-1,3.2867476E-1,2.704306E-1,7.180026E-1,1.7648788E-1,7.6098436E-1,8.361457E-1,1.104301E0,-4.4124812E-1,-3.9229727E-1,-3.8854152E-1,-2.667277E-1,-3.963344E-1,-2.558143E-1,-2.305548E-1,-6.1852828E-2,-2.1959056E-1,-3.366322E-1,-4.521588E-1,-1.525861E-1,-3.125063E-1,-9.690266E-2,-8.155751E-2,7.236007E-2,-3.5747325E-1,-2.1004479E-1,-1.7176624E-1,-2.3688028E-2,-1.5968844E-1,1.4601676E-1,1.291505E-1,-1.6394739E-1,-2.1032083E-1,-1.9718455E-2,-1.6416925E-1,1.1043224E-2,-2.9879961E-2,1.08567744E-1,1.21948674E-1,2.3477583E-1,-4.0800077E-1,-2.628692E-1,-1.6630825E-1,1.1704404E-1,-1.844024E-1,3.2694705E-2,-1.3184472E-2,-2.4705333E-1,-3.0406547E-1,-1.3389252E-1,1.5380713E-1,-8.1850015E-2,-6.49185E-2,4.690018E-2,6.054124E-2,1.7564991E-1,-1.67098E-1,1.8423177E-2,-4.4376157E-2,1.2749705E-1,-2.5405223E-2,1.3154925E-1,2.2347152E-1,-4.878978E-2,-2.0913105E-1,8.613342E-2,2.0752202E-1,3.1320894E-1,8.0416456E-2,2.616273E-1,3.355003E-1,1.2672727E-1],"categories":[],"categories_nodes":[],"categories_segments":[],"categories_sizes":[],"default_left":[0,0,0,0,0,0,0,0,0,0,0,0,0,0,0,0,0,0,0,0,0,0,0,0,0,0,0,0,0,0,0,0,0,0,0,0,0,0,0,0,0,0,0,0,0,0,0,0,0,0,0,0,0,0,0,0,0,0,0,0,0,0,0,0,0,0,0,0,0,0,0,0,0,0,0,0,0,0,0,0,0,0,0,0,0,0,0,0,0,0,0,0,0,0,0,0,0,0,0,0,0,0,0,0,0,0,0,0,0,0,0,0,0,0,0,0,0,0,0,0,0,0,0,0,0,0,0],"id":1,"left_children":[1,3,5,7,9,11,13,15,17,19,21,23,25,27,29,31,33,35,37,39,41,43,45,47,49,51,53,55,57,59,61,63,65,67,69,71,73,75,77,79,81,83,85,87,89,91,93,95,97,99,101,103,105,107,109,111,113,115,117,119,121,123,125,-1,-1,-1,-1,-1,-1,-1,-1,-1,-1,-1,-1,-1,-1,-1,-1,-1,-1,-1,-1,-1,-1,-1,-1,-1,-1,-1,-1,-1,-1,-1,-1,-1,-1,-1,-1,-1,-1,-1,-1,-1,-1,-1,-1,-1,-1,-1,-1,-1,-1,-1,-1,-1,-1,-1,-1,-1,-1,-1,-1,-1,-1,-1,-1],"loss_changes":[2.0015375E4,5.6555107E3,4.951327E3,9.676719E2,1.5655565E3,8.1871893E2,1.7115117E3,3.545791E2,3.5563196E2,4.4698572E2,1.0362355E3,3.2326318E2,4.8975293E2,7.0582153E2,5.48E2,1.8819238E2,1.5725366E2,1.373147E2,9.588779E1,1.8429053E2,1.8026651E2,2.2338422E2,3.5503833E2,1.12433105E2,1.2792653E2,1.7049806E2,1.7944565E2,4.2389288E2,2.2305566E2,3.6260266E2,2.0680078E2,3.379004E1,1.3378052E2,1.09742676E2,4.655517E1,6.5269165E1,4.41221E1,3.9273666E1,6.56412E1,1.500149E2,4.152826E1,7.6561615E1,5.8141945E1,8.597986E1,1.5415979E2,2.1613226E2,8.983423E1,3.7529358E1,5.0437286E1,4.583731E1,7.581412E1,6.099405E1,8.733245E1,6.668064E1,1.22643555E2,1.8631247E2,2.8724408E2,8.274592E1,1.356001E2,1.458209E2,6.9870605E1,1.0841675E2,6.003174E1,0E0,0E0,0E0,0E0,0E0,0E0,0E0,0E0,0E0,0E0,0E0,0E0,0E0,0E0,0E0,0E0,0E0,0E0,0E0,0E0,0E0,0E0,0E0,0E0,0E0,0E0,0E0,0E0,0E0,0E0,0E0,0E0,0E0,0E0,0E0,0E0,0E0,0E0,0E0,0E0,0E0,0E0,0E0,0E0,0E0,0E0,0E0,0E0,0E0,0E0,0E0,0E0,0E0,0E0,0E0,0E0,0E0,0E0,0E0,0E0,0E0,0E0,0E0,0E0],"parents":[2147483647,0,0,1,1,2,2,3,3,4,4,5,5,6,6,7,7,8,8,9,9,10,10,11,11,12,12,13,13,14,14,15,15,16,16,17,17,18,18,19,19,20,20,21,21,22,22,23,23,24,24,25,25,26,26,27,27,28,28,29,29,30,30,31,31,32,32,33,33,34,34,35,35,36,36,37,37,38,38,39,39,40,40,41,41,42,42,43,43,44,44,45,45,46,46,47,47,48,48,49,49,50,50,51,51,52,52,53,53,54,54,55,55,56,56,57,57,58,58,59,59,60,60,61,61,62,62],"right_children":[2,4,6,8,10,12,14,16,18,20,22,24,26,28,30,32,34,36,38,40,42,44,46,48,50,52,54,56,58,60,62,64,66,68,70,72,74,76,78,80,82,84,86,88,90,92,94,96,98,100,102,104,106,108,110,112,114,116,118,120,122,124,126,-1,-1,-1,-1,-1,-1,-1,-1,-1,-1,-1,-1,-1,-1,-1,-1,-1,-1,-1,-1,-1,-1,-1,-1,-1,-1,-1,-1,-1,-1,-1,-1,-1,-1,-1,-1,-1,-1,-1,-1,-1,-1,-1,-1,-1,-1,-1,-1,-1,-1,-1,-1,-1,-1,-1,-1,-1,-1,-1,-1,-1,-1,-1,-1],"split_conditions":[1E0,3E0,3E0,1E1,7E0,1.8604651E-1,2.2093023E-1,1E0,1.9767442E-1,1E0,1.744186E-1,1E1,8E0,4E0,1E0,1.8604651E-1,2.3255815E-1,1E0,2E0,4E0,4E0,1.3953489E-1,4E0,1E0,1.3953489E-1,1E0,1E0,9E0,1.3953489E-1,8E0,4E0,2E0,6E0,2E0,7E0,6E0,1E0,1E0,1E0,5E0,2.7906978E-1,3.488372E-1,8E0,1E0,9E0,2.3255815E-1,1E1,6E0,1E0,1E0,1E0,2.4418604E-1,6E0,1E1,2.3255815E-1,1E0,1.3953489E-1,1E0,1E0,4E0,1E0,6E0,1E0,-4.4124812E-1,-3.9229727E-1,-3.8854152E-1,-2.667277E-1,-3.963344E-1,-2.558143E-1,-2.305548E-1,-6.1852828E-2,-2.1959056E-1,-3.366322E-1,-4.521588E-1,-1.525861E-1,-3.125063E-1,-9.690266E-2,-8.155751E-2,7.236007E-2,-3.5747325E-1,-2.1004479E-1,-1.7176624E-1,-2.3688028E-2,-1.5968844E-1,1.4601676E-1,1.291505E-1,-1.6394739E-1,-2.1032083E-1,-1.9718455E-2,-1.6416925E-1,1.1043224E-2,-2.9879961E-2,1.08567744E-1,1.21948674E-1,2.3477583E-1,-4.0800077E-1,-2.628692E-1,-1.6630825E-1,1.1704404E-1,-1.844024E-1,3.2694705E-2,-1.3184472E-2,-2.4705333E-1,-3.0406547E-1,-1.3389252E-1,1.5380713E-1,-8.1850015E-2,-6.49185E-2,4.690018E-2,6.054124E-2,1.7564991E-1,-1.67098E-1,1.8423177E-2,-4.4376157E-2,1.2749705E-1,-2.5405223E-2,1.3154925E-1,2.2347152E-1,-4.878978E-2,-2.0913105E-1,8.613342E-2,2.0752202E-1,3.1320894E-1,8.0416456E-2,2.616273E-1,3.355003E-1,1.2672727E-1],"split_indices":[0,10,10,15,15,3,3,1,3,1,3,15,15,10,1,3,3,14,10,10,10,3,10,1,3,1,1,15,3,15,10,10,15,10,15,17,2,14,14,15,3,3,17,6,15,3,15,15,13,13,9,3,17,15,3,1,3,1,9,15,6,15,9,0,0,0,0,0,0,0,0,0,0,0,0,0,0,0,0,0,0,0,0,0,0,0,0,0,0,0,0,0,0,0,0,0,0,0,0,0,0,0,0,0,0,0,0,0,0,0,0,0,0,0,0,0,0,0,0,0,0,0,0,0,0,0,0],"split_type":[0,0,0,0,0,0,0,0,0,0,0,0,0,0,0,0,0,0,0,0,0,0,0,0,0,0,0,0,0,0,0,0,0,0,0,0,0,0,0,0,0,0,0,0,0,0,0,0,0,0,0,0,0,0,0,0,0,0,0,0,0,0,0,0,0,0,0,0,0,0,0,0,0,0,0,0,0,0,0,0,0,0,0,0,0,0,0,0,0,0,0,0,0,0,0,0,0,0,0,0,0,0,0,0,0,0,0,0,0,0,0,0,0,0,0,0,0,0,0,0,0,0,0,0,0,0,0],"sum_hessian":[7.589157E4,3.195265E4,4.393892E4,1.6447562E4,1.5505088E4,1.1839568E4,3.2099352E4,1.2021127E4,4.4264355E3,4.8329688E3,1.0672119E4,5.021797E3,6.8177715E3,1.5351045E4,1.6748307E4,8.860491E3,3.160636E3,3.1234065E3,1.3030288E3,3.4160405E3,1.4169281E3,3.9737144E3,6.698405E3,1.9200796E3,3.1017173E3,1.4447722E3,5.3729995E3,8.248729E3,7.1023164E3,5.106646E3,1.1641661E4,5.5541553E3,3.3063354E3,2.5353408E3,6.2529517E2,1.8292109E3,1.2941957E3,3.0691885E2,9.9611E2,2.5328252E3,8.832153E2,8.97399E2,5.195291E2,1.8370497E3,2.1366648E3,4.1230054E3,2.5753997E3,9.9292896E2,9.271506E2,9.109986E2,2.1907188E3,7.628807E2,6.8189154E2,2.0383009E3,3.3346987E3,1.9935271E3,6.255201E3,1.3848008E3,5.7175156E3,1.5058411E3,3.6008047E3,5.3197495E3,6.321911E3,2.2555435E3,3.298612E3,1.4834454E3,1.8228901E3,6.93893E2,1.8414479E3,2.3732481E2,3.8797034E2,7.1029297E2,1.118918E3,4.519139E1,1.2490043E3,1.4305946E2,1.6385939E2,5.1055905E2,4.855509E2,1.4140347E3,1.1187906E3,6.520831E2,2.3113214E2,8.1713995E2,8.025908E1,4.499796E2,6.954952E1,1.590892E3,2.4615784E2,6.47864E2,1.4888008E3,2.3214302E3,1.8015752E3,1.4209514E3,1.1544482E3,2.068757E2,7.860533E2,8.673634E2,5.978716E1,8.1323566E2,9.776293E1,2.0589087E3,1.3180988E2,3.8172342E2,3.8115726E2,1.9905917E2,4.8283237E2,7.713167E2,1.2669841E3,1.6838994E3,1.6507992E3,8.4470123E2,1.1488259E3,1.0515085E3,5.203693E3,4.45013E2,9.3978784E2,5.5481787E3,1.6933673E2,1.6865727E2,1.3371838E3,2.8958152E3,7.049896E2,3.1707312E2,5.002677E3,6.1938003E3,1.2811124E2],"tree_param":{"num_deleted":"0","num_feature":"18","num_nodes":"127","size_leaf_vector":"1"}},{"base_weights":[-2.2516416E-3,-4.5587566E-1,3.2098836E-1,-7.9143995E-1,-1.233633E-1,-8.365607E-2,4.7424725E-1,-1.0859393E0,-6.114845E-1,-3.4802574E-1,1.7275584E-1,-2.1596646E-1,2.2909339E-1,3.2040414E-1,7.108019E-1,-1.1668743E0,-8.691238E-1,-9.37467E-1,-4.7323734E-1,-5.7304686E-1,-1.8022545E-2,-2.565649E-1,2.7192962E-1,-6.9247925E-1,-1.2485865E-1,-4.3522817E-1,2.9388782E-1,6.6218905E-2,4.3830398E-1,4.9114674E-1,8.1108177E-1,-1.102106E0,-1.2620735E0,-9.002833E-1,1.344665E-1,-1.1187233E0,-7.029886E-1,-6.9516134E-1,-2.8890488E-1,-7.0923895E-1,-1.7561872E-1,-1.3843335E-1,5.705648E-1,-1.3117899E0,-2.2645295E-1,1.3156846E-1,4.9674755E-1,-7.4452055E-1,5.314567E-1,-7.693354E-2,-8.7151355E-1,1.4717084E-1,-6.305966E-1,2.2643201E-1,8.232167E-1,1.0990012E-1,-8.997938E-1,4.6754912E-1,-3.2513842E-1,-2.8799617E-1,5.5156726E-1,7.57464E-1,1.0443228E0,-3.7172246E-1,-3.0141538E-1,-3.8703448E-1,-3.6093897E-1,-3.4194317E-1,-2.363287E-1,-1.7979416E-1,2.862862E-1,-1.7503548E-1,-3.5208964E-1,-2.3083161E-1,3.266241E-2,-2.5153258E-1,-1.451226E-1,-4.1194412E-1,-7.530404E-2,-2.4516924E-1,-1.2602836E-1,-3.0571824E-1,-2.437865E-2,-1.8266492E-1,-3.0170542E-3,-7.093093E-3,2.4399103E-1,-2.0091617E-1,-5.1160306E-1,-1.8718171E-1,-4.7200616E-2,-3.0357067E-2,1.070102E-1,1.0863086E-1,2.0990032E-1,5.83005E-2,-2.3944582E-1,-3.3322385E-1,1.9293891E-1,-1.2672272E-1,4.0657907E-3,-2.9701254E-1,6.780895E-2,-3.4935242E-1,1.7310502E-1,-2.6799864E-1,-7.14483E-2,1.5281731E-2,1.06526814E-1,2.0700224E-1,3.2918507E-1,-1.8950306E-1,4.9184684E-2,-3.2980385E-1,-2.1331463E-2,1.0272699E-1,1.8096557E-1,-1.7589387E-1,1.5486167E-2,-1.6239868E-1,1.2763916E-1,1.14362516E-1,2.2071587E-1,2.3258142E-1,3.6387447E-2,2.894461E-1,3.413565E-1],"categories":[],"categories_nodes":[],"categories_segments":[],"categories_sizes":[],"default_left":[0,0,0,0,0,0,0,0,0,0,0,0,0,0,0,0,0,0,0,0,0,0,0,0,0,0,0,0,0,0,0,0,0,0,0,0,0,0,0,0,0,0,0,0,0,0,0,0,0,0,0,0,0,0,0,0,0,0,0,0,0,0,0,0,0,0,0,0,0,0,0,0,0,0,0,0,0,0,0,0,0,0,0,0,0,0,0,0,0,0,0,0,0,0,0,0,0,0,0,0,0,0,0,0,0,0,0,0,0,0,0,0,0,0,0,0,0,0,0,0,0,0,0,0,0,0,0],"id":2,"left_children":[1,3,5,7,9,11,13,15,17,19,21,23,25,27,29,31,33,35,37,39,41,43,45,47,49,51,53,55,57,59,61,63,65,67,69,71,73,75,77,79,81,83,85,87,89,91,93,95,97,99,101,103,105,107,109,111,113,115,117,119,121,123,125,-1,-1,-1,-1,-1,-1,-1,-1,-1,-1,-1,-1,-1,-1,-1,-1,-1,-1,-1,-1,-1,-1,-1,-1,-1,-1,-1,-1,-1,-1,-1,-1,-1,-1,-1,-1,-1,-1,-1,-1,-1,-1,-1,-1,-1,-1,-1,-1,-1,-1,-1,-1,-1,-1,-1,-1,-1,-1,-1,-1,-1,-1,-1,-1],"loss_changes":[1.0640044E4,3.3687856E3,2.6277202E3,7.957285E2,1.0090403E3,4.8173358E2,1.1181782E3,9.8981445E1,4.200166E2,6.4039465E2,2.7867142E2,3.5505994E2,1.4910666E2,5.580814E2,2.663413E2,2.4175781E1,4.868103E1,1.1725513E2,2.6788623E2,2.774165E2,2.4795197E2,3.8735504E1,1.6768515E2,8.401544E1,2.4571707E2,3.5135147E1,1.1243402E2,2.49152E2,2.84198E2,1.7896191E2,1.03163574E2,3.1776611E1,1.2111816E0,3.969763E1,2.9225418E1,4.5306274E1,6.555603E1,8.9647705E1,1.468013E2,1.188938E2,1.04174E2,1.7539716E2,8.5721756E1,7.41716E0,3.274714E1,1.7160355E2,5.5563416E1,6.358374E1,1.064069E1,2.0180815E2,5.4105103E1,4.47468E1,2.358451E1,6.3177704E1,1.2244644E1,2.2647339E2,4.2164658E1,2.0779956E2,4.6273712E1,4.9753414E1,1.1031079E2,7.6514404E1,1.0435913E1,0E0,0E0,0E0,0E0,0E0,0E0,0E0,0E0,0E0,0E0,0E0,0E0,0E0,0E0,0E0,0E0,0E0,0E0,0E0,0E0,0E0,0E0,0E0,0E0,0E0,0E0,0E0,0E0,0E0,0E0,0E0,0E0,0E0,0E0,0E0,0E0,0E0,0E0,0E0,0E0,0E0,0E0,0E0,0E0,0E0,0E0,0E0,0E0,0E0,0E0,0E0,0E0,0E0,0E0,0E0,0E0,0E0,0E0,0E0,0E0,0E0,0E0,0E0,0E0],"parents":[2147483647,0,0,1,1,2,2,3,3,4,4,5,5,6,6,7,7,8,8,9,9,10,10,11,11,12,12,13,13,14,14,15,15,16,16,17,17,18,18,19,19,20,20,21,21,22,22,23,23,24,24,25,25,26,26,27,27,28,28,29,29,30,30,31,31,32,32,33,33,34,34,35,35,36,36,37,37,38,38,39,39,40,40,41,41,42,42,43,43,44,44,45,45,46,46,47,47,48,48,49,49,50,50,51,51,52,52,53,53,54,54,55,55,56,56,57,57,58,58,59,59,60,60,61,61,62,62],"right_children":[2,4,6,8,10,12,14,16,18,20,22,24,26,28,30,32,34,36,38,40,42,44,46,48,50,52,54,56,58,60,62,64,66,68,70,72,74,76,78,80,82,84,86,88,90,92,94,96,98,100,102,104,106,108,110,112,114,116,118,120,122,124,126,-1,-1,-1,-1,-1,-1,-1,-1,-1,-1,-1,-1,-1,-1,-1,-1,-1,-1,-1,-1,-1,-1,-1,-1,-1,-1,-1,-1,-1,-1,-1,-1,-1,-1,-1,-1,-1,-1,-1,-1,-1,-1,-1,-1,-1,-1,-1,-1,-1,-1,-1,-1,-1,-1,-1,-1,-1,-1,-1,-1,-1,-1,-1,-1],"split_conditions":[1E0,3E0,3E0,7E0,1E0,2.3255815E-1,2.4418604E-1,2.0930232E-1,2E0,9E0,1.5116279E-1,8E0,6E0,1E0,1E0,3.3333335E-2,1E0,1E0,1.744186E-1,2.5581396E-1,1E0,1E0,4E0,1E0,1E0,5E0,1E0,1E0,1E0,5E0,5E0,2E0,1E0,4E0,1.6666667E-1,4E0,2.5581396E-1,1E0,1E0,4E0,3E0,1.3953489E-1,1.627907E-1,1E0,7E0,9E0,2.4418604E-1,3E0,4E0,2E0,1E0,4E0,1E0,1E0,1E0,6E0,2.2093023E-1,4E0,4E0,3.8372093E-1,4E0,1E0,1E0,-3.7172246E-1,-3.0141538E-1,-3.8703448E-1,-3.6093897E-1,-3.4194317E-1,-2.363287E-1,-1.7979416E-1,2.862862E-1,-1.7503548E-1,-3.5208964E-1,-2.3083161E-1,3.266241E-2,-2.5153258E-1,-1.451226E-1,-4.1194412E-1,-7.530404E-2,-2.4516924E-1,-1.2602836E-1,-3.0571824E-1,-2.437865E-2,-1.8266492E-1,-3.0170542E-3,-7.093093E-3,2.4399103E-1,-2.0091617E-1,-5.1160306E-1,-1.8718171E-1,-4.7200616E-2,-3.0357067E-2,1.070102E-1,1.0863086E-1,2.0990032E-1,5.83005E-2,-2.3944582E-1,-3.3322385E-1,1.9293891E-1,-1.2672272E-1,4.0657907E-3,-2.9701254E-1,6.780895E-2,-3.4935242E-1,1.7310502E-1,-2.6799864E-1,-7.14483E-2,1.5281731E-2,1.06526814E-1,2.0700224E-1,3.2918507E-1,-1.8950306E-1,4.9184684E-2,-3.2980385E-1,-2.1331463E-2,1.0272699E-1,1.8096557E-1,-1.7589387E-1,1.5486167E-2,-1.6239868E-1,1.2763916E-1,1.14362516E-1,2.2071587E-1,2.3258142E-1,3.6387447E-2,2.894461E-1,3.413565E-1],"split_indices":[0,10,10,15,1,3,3,3,10,15,3,15,15,1,1,11,13,14,3,3,6,2,10,6,9,17,6,9,9,15,10,10,4,15,12,17,3,1,2,10,15,3,3,7,15,15,3,17,15,10,6,15,1,1,13,15,3,10,10,3,10,9,6,0,0,0,0,0,0,0,0,0,0,0,0,0,0,0,0,0,0,0,0,0,0,0,0,0,0,0,0,0,0,0,0,0,0,0,0,0,0,0,0,0,0,0,0,0,0,0,0,0,0,0,0,0,0,0,0,0,0,0,0,0,0,0,0],"split_type":[0,0,0,0,0,0,0,0,0,0,0,0,0,0,0,0,0,0,0,0,0,0,0,0,0,0,0,0,0,0,0,0,0,0,0,0,0,0,0,0,0,0,0,0,0,0,0,0,0,0,0,0,0,0,0,0,0,0,0,0,0,0,0,0,0,0,0,0,0,0,0,0,0,0,0,0,0,0,0,0,0,0,0,0,0,0,0,0,0,0,0,0,0,0,0,0,0,0,0,0,0,0,0,0,0,0,0,0,0,0,0,0,0,0,0,0,0,0,0,0,0,0,0,0,0,0,0],"sum_hessian":[7.256218E4,3.0191727E4,4.2370453E4,1.5026215E4,1.5165512E4,1.1639504E4,3.073095E4,5.6973677E3,9.328848E3,8.62309E3,6.5424214E3,8.179451E3,3.4600527E3,1.8622303E4,1.21086455E4,4.1455093E3,1.5518583E3,2.776401E3,6.5524463E3,5.12663E3,3.4964604E3,1.2274098E3,5.3150117E3,1.3118104E3,6.867641E3,3.0697693E2,3.153076E3,5.9012065E3,1.2721097E4,3.797161E3,8.311484E3,2.474542E3,1.6709673E3,1.5052269E3,4.6631325E1,1.5637899E3,1.212611E3,2.9718115E3,3.5806348E3,3.817612E3,1.3090176E3,2.9032834E3,5.931771E2,3.2872757E1,1.1945371E3,3.273096E3,2.0419156E3,1.2586833E3,5.312706E1,6.4544556E3,4.131854E2,7.71719E1,2.2980502E2,2.7979434E3,3.551324E2,5.646758E3,2.5444914E2,1.2252143E4,4.6895453E2,2.7299765E2,3.524163E3,6.761411E3,1.5500736E3,1.02343494E3,1.4511072E3,1.1181431E3,5.528242E2,4.781794E2,1.0270475E3,2.4748846E1,2.1882477E1,1.4657271E2,1.4172173E3,1.1209175E3,9.1693504E1,1.7695845E3,1.202227E3,1.1971843E2,3.4609165E3,2.778173E3,1.039439E3,1.3072072E2,1.1782969E3,6.216042E2,2.2816792E3,1.7230013E2,4.2087698E2,1.3518884E1,1.9353874E1,1.7575659E2,1.01878046E3,1.6095609E3,1.6635352E3,1.2291293E3,8.127864E2,6.78751E1,1.1908082E3,2.8130724E0,5.0313988E1,1.3388954E3,5.11556E3,3.7300137E2,4.0184006E1,1.862584E1,5.854606E1,1.3688521E2,9.291982E1,1.184137E3,1.6138065E3,2.413451E2,1.1378729E2,3.8287216E2,5.2638853E3,2.0480458E2,4.9644558E1,6.3755728E3,5.87657E3,2.7663272E2,1.9232181E2,2.0164098E2,7.1356674E1,1.8322354E3,1.6919277E3,6.5770903E3,1.8432065E2,8.4399286E2,7.060807E2],"tree_param":{"num_deleted":"0","num_feature":"18","num_nodes":"127","size_leaf_vector":"1"}},{"base_weights":[-3.3288158E-3,-3.4786618E-1,2.3644796E-1,-6.284208E-1,-9.009871E-2,9.796626E-2,5.0414187E-1,-9.168561E-1,-4.6705228E-1,-6.0703415E-1,-4.379964E-3,-2.5539896E-1,1.8742529E-1,2.024764E-1,5.932447E-1,-1.0029608E0,-6.991875E-1,-7.614053E-1,-3.5142893E-1,-7.0322025E-1,-4.172404E-2,-1.1164728E0,3.1496484E-2,-4.2749247E-1,-2.6491184E-2,-4.7377877E-2,2.9825833E-1,9.448506E-2,4.039459E-1,3.1210536E-1,6.3206786E-1,-1.1221204E0,-9.3295324E-1,-7.176849E-1,1.0907004E0,-9.451608E-1,-5.4166335E-1,-4.4441688E-1,1.619309E-2,-8.4593236E-1,-3.349095E-1,-2.3337546E-1,6.614786E-1,-1.1749916E0,-1.1200605E-1,-9.549192E-2,3.1496054E-1,-3.740489E-1,-1.1593939E0,-5.459447E-1,1.345888E-1,-8.7092376E-1,2.5676303E-3,1.3182428E-1,4.1499037E-1,3.0853063E-1,-7.685745E-2,2.1871279E-1,5.2359444E-1,-2.7627502E-2,4.6026993E-1,5.684711E-1,8.100365E-1,-1.9065407E-1,-3.4123296E-1,-2.4914277E-1,-3.2078233E-1,-2.3244916E-1,-6.889514E-2,6.396096E-1,1.0888057E-1,-1.9530131E-1,-3.1668395E-1,-2.2938639E-1,-9.376999E-2,-1.4726098E-1,8.226589E-2,-2.5610493E-2,1.1996471E-1,-2.1478188E-1,-3.0375066E-1,-3.9260756E-2,-1.995803E-1,-1.9629954E-1,-1.9400131E-2,3.8881955E-1,1.2954067E-1,-4.0035602E-1,-2.6179823E-1,-2.8315848E-1,2.3788245E-1,-7.413545E-2,2.4791433E-2,5.0382216E-2,1.3993016E-1,-1.766735E-1,-6.5208934E-2,-4.2786345E-1,-2.698972E-1,-2.8602198E-1,-1.2014023E-1,-1.02879584E-1,5.964221E-2,-1.5415956E-1,-3.240365E-1,-2.850694E-2,1.04014575E-1,1.7956644E-2,1.5477055E-1,8.9061365E-2,1.6671199E-1,1.2205451E-1,-1.573493E-2,-3.6535525E-1,-1.6539378E-2,2.4745136E-1,4.823153E-2,1.2251755E-1,2.0648462E-1,-2.249943E-1,4.8903875E-2,-4.0162456E-1,1.4593518E-1,1.5224645E-1,2.1245727E-1,2.4649416E-1,4.4864684E-2],"categories":[],"categories_nodes":[],"categories_segments":[],"categories_sizes":[],"default_left":[0,0,0,0,0,0,0,0,0,0,0,0,0,0,0,0,0,0,0,0,0,0,0,0,0,0,0,0,0,0,0,0,0,0,0,0,0,0,0,0,0,0,0,0,0,0,0,0,0,0,0,0,0,0,0,0,0,0,0,0,0,0,0,0,0,0,0,0,0,0,0,0,0,0,0,0,0,0,0,0,0,0,0,0,0,0,0,0,0,0,0,0,0,0,0,0,0,0,0,0,0,0,0,0,0,0,0,0,0,0,0,0,0,0,0,0,0,0,0,0,0,0,0,0,0,0,0],"id":3,"left_children":[1,3,5,7,9,11,13,15,17,19,21,23,25,27,29,31,33,35,37,39,41,43,45,47,49,51,53,55,57,59,61,63,65,67,69,71,73,75,77,79,81,83,85,87,89,91,93,95,97,99,101,103,105,107,109,111,113,115,117,119,121,123,125,-1,-1,-1,-1,-1,-1,-1,-1,-1,-1,-1,-1,-1,-1,-1,-1,-1,-1,-1,-1,-1,-1,-1,-1,-1,-1,-1,-1,-1,-1,-1,-1,-1,-1,-1,-1,-1,-1,-1,-1,-1,-1,-1,-1,-1,-1,-1,-1,-1,-1,-1,-1,-1,-1,-1,-1,-1,-1,-1,-1,-1,-1,-1,-1],"loss_changes":[5.716587E3,2.0534666E3,1.5125164E3,6.324238E2,6.558037E2,8.5015967E2,3.7379395E2,9.070166E1,2.9654028E2,1.1443457E2,5.0657852E2,2.1402112E2,5.584912E2,6.900691E1,1.1700928E2,2.8085205E1,4.665912E1,9.876526E1,2.141128E2,9.4272705E1,4.1549843E1,2.3192535E1,4.4279514E2,1.2087964E2,1.9526463E2,2.8308987E2,2.8318445E2,7.5843704E1,2.4422623E1,6.569847E1,1.063208E2,8.876831E0,2.9925537E1,3.808783E1,1.0268156E1,4.277246E1,5.707303E1,1.6701056E2,4.9343872E1,2.73349E1,3.3888306E1,1.715221E1,9.066355E0,1.6914795E1,1.8024792E1,2.2947523E2,8.467386E1,9.7228455E1,1.3310455E1,3.2359894E1,5.4696457E1,2.8840057E1,2.1799757E2,1.6613387E2,1.4225244E2,3.2649216E1,2.8416119E1,1.5186583E1,1.2466995E1,5.4824177E1,4.3451004E1,5.889209E1,1.890686E1,0E0,0E0,0E0,0E0,0E0,0E0,0E0,0E0,0E0,0E0,0E0,0E0,0E0,0E0,0E0,0E0,0E0,0E0,0E0,0E0,0E0,0E0,0E0,0E0,0E0,0E0,0E0,0E0,0E0,0E0,0E0,0E0,0E0,0E0,0E0,0E0,0E0,0E0,0E0,0E0,0E0,0E0,0E0,0E0,0E0,0E0,0E0,0E0,0E0,0E0,0E0,0E0,0E0,0E0,0E0,0E0,0E0,0E0,0E0,0E0,0E0,0E0,0E0,0E0],"parents":[2147483647,0,0,1,1,2,2,3,3,4,4,5,5,6,6,7,7,8,8,9,9,10,10,11,11,12,12,13,13,14,14,15,15,16,16,17,17,18,18,19,19,20,20,21,21,22,22,23,23,24,24,25,25,26,26,27,27,28,28,29,29,30,30,31,31,32,32,33,33,34,34,35,35,36,36,37,37,38,38,39,39,40,40,41,41,42,42,43,43,44,44,45,45,46,46,47,47,48,48,49,49,50,50,51,51,52,52,53,53,54,54,55,55,56,56,57,57,58,58,59,59,60,60,61,61,62,62],"right_children":[2,4,6,8,10,12,14,16,18,20,22,24,26,28,30,32,34,36,38,40,42,44,46,48,50,52,54,56,58,60,62,64,66,68,70,72,74,76,78,80,82,84,86,88,90,92,94,96,98,100,102,104,106,108,110,112,114,116,118,120,122,124,126,-1,-1,-1,-1,-1,-1,-1,-1,-1,-1,-1,-1,-1,-1,-1,-1,-1,-1,-1,-1,-1,-1,-1,-1,-1,-1,-1,-1,-1,-1,-1,-1,-1,-1,-1,-1,-1,-1,-1,-1,-1,-1,-1,-1,-1,-1,-1,-1,-1,-1,-1,-1,-1,-1,-1,-1,-1,-1,-1,-1,-1,-1,-1,-1],"split_conditions":[1E0,3E0,4E0,7E0,5E0,1.627907E-1,1.744186E-1,2.0930232E-1,2E0,3.139535E-1,1E0,1E0,9E0,1E0,7E0,2E0,1E0,1E0,2.3255815E-1,4E0,1E0,1E0,2.3255815E-1,1E0,9E0,4E0,3E0,1E0,1.3953489E-1,2.4418604E-1,3.0232558E-1,2E0,3.3333335E-2,1.3333334E-1,5E0,6E0,1E1,1E0,1.1E1,1E0,2.6666668E-1,3E0,2E0,1E-1,1E1,1E0,1E0,1E0,1E0,6E0,2E0,1E0,3.0232558E-1,1E0,2.3255815E-1,1.3E1,1E0,3E0,5E0,5E0,1E0,5E0,1E0,-1.9065407E-1,-3.4123296E-1,-2.4914277E-1,-3.2078233E-1,-2.3244916E-1,-6.889514E-2,6.396096E-1,1.0888057E-1,-1.9530131E-1,-3.1668395E-1,-2.2938639E-1,-9.376999E-2,-1.4726098E-1,8.226589E-2,-2.5610493E-2,1.1996471E-1,-2.1478188E-1,-3.0375066E-1,-3.9260756E-2,-1.995803E-1,-1.9629954E-1,-1.9400131E-2,3.8881955E-1,1.2954067E-1,-4.0035602E-1,-2.6179823E-1,-2.8315848E-1,2.3788245E-1,-7.413545E-2,2.4791433E-2,5.0382216E-2,1.3993016E-1,-1.766735E-1,-6.5208934E-2,-4.2786345E-1,-2.698972E-1,-2.8602198E-1,-1.2014023E-1,-1.02879584E-1,5.964221E-2,-1.5415956E-1,-3.240365E-1,-2.850694E-2,1.04014575E-1,1.7956644E-2,1.5477055E-1,8.9061365E-2,1.6671199E-1,1.2205451E-1,-1.573493E-2,-3.6535525E-1,-1.6539378E-2,2.4745136E-1,4.823153E-2,1.2251755E-1,2.0648462E-1,-2.249943E-1,4.8903875E-2,-4.0162456E-1,1.4593518E-1,1.5224645E-1,2.1245727E-1,2.4649416E-1,4.4864684E-2],"split_indices":[0,10,10,15,15,3,3,3,10,3,2,14,15,6,15,10,6,14,3,10,13,6,3,9,15,15,10,4,3,3,3,17,11,12,16,17,15,6,15,14,12,15,17,12,15,14,1,1,1,15,10,14,3,13,3,15,2,16,10,15,2,10,9,0,0,0,0,0,0,0,0,0,0,0,0,0,0,0,0,0,0,0,0,0,0,0,0,0,0,0,0,0,0,0,0,0,0,0,0,0,0,0,0,0,0,0,0,0,0,0,0,0,0,0,0,0,0,0,0,0,0,0,0,0,0,0,0],"split_type":[0,0,0,0,0,0,0,0,0,0,0,0,0,0,0,0,0,0,0,0,0,0,0,0,0,0,0,0,0,0,0,0,0,0,0,0,0,0,0,0,0,0,0,0,0,0,0,0,0,0,0,0,0,0,0,0,0,0,0,0,0,0,0,0,0,0,0,0,0,0,0,0,0,0,0,0,0,0,0,0,0,0,0,0,0,0,0,0,0,0,0,0,0,0,0,0,0,0,0,0,0,0,0,0,0,0,0,0,0,0,0,0,0,0,0,0,0,0,0,0,0,0,0,0,0,0,0],"sum_hessian":[6.919598E4,2.8394795E4,4.0801184E4,1.3595732E4,1.4799063E4,2.6891309E4,1.3909874E4,4.8758335E3,8.719898E3,2.1040852E3,1.2694978E4,5.432187E3,2.1459121E4,3.1724705E3,1.0737403E4,3.4911907E3,1.3846432E3,2.4576492E3,6.2622495E3,1.7979283E3,3.061569E2,3.9580338E2,1.2299175E4,3.1004172E3,2.3317698E3,6.8813486E3,1.4577773E4,2.066342E3,1.1061283E3,1.3039365E3,9.433467E3,1.2864692E3,2.2047212E3,1.371073E3,1.3570193E1,1.336621E3,1.1210282E3,4.9978594E3,1.26439E3,1.2948905E3,5.0303787E2,2.4111214E2,6.504478E1,3.7385345E2,2.1949915E1,8.494435E3,3.8047395E3,2.8908389E3,2.0957852E2,5.513565E2,1.7804133E3,3.9252988E2,6.488819E3,6.010401E3,8.567372E3,9.183342E2,1.1480079E3,4.3520175E2,6.709266E2,3.9622617E2,9.077104E2,6.953013E3,2.4804539E3,4.056969E1,1.2458995E3,1.2626417E3,9.420796E2,1.2268314E3,1.4424152E2,4.788685E0,8.781508E0,3.6676004E2,9.6986096E2,5.669411E2,5.5408704E2,4.6947085E3,3.031512E2,1.0003721E3,2.6401797E2,7.302747E2,5.646158E2,3.118345E2,1.9120335E2,6.81608E1,1.7295134E2,1.6051668E1,4.8993107E1,2.4248784E2,1.3136562E2,1.1414424E1,1.053549E1,4.5883735E3,3.9060615E3,1.9318229E3,1.8729165E3,1.2179329E3,1.672906E3,1.0116478E2,1.0841375E2,1.4359975E2,4.0775677E2,2.1053833E2,1.569875E3,1.462932E2,2.4623668E2,5.0558447E3,1.4329741E3,5.062871E3,9.475297E2,4.6593555E3,3.9080166E3,7.2165497E2,1.9667926E2,2.0422564E1,1.1275853E3,3.6817337E1,3.9838443E2,3.9682104E2,2.7410553E2,8.212254E1,3.1410364E2,1.2301053E1,8.954093E2,4.8435864E3,2.1094272E3,2.4373633E3,4.30904E1],"tree_param":{"num_deleted":"0","num_feature":"18","num_nodes":"127","size_leaf_vector":"1"}},{"base_weights":[-3.8158202E-3,-2.644087E-1,1.7368521E-1,-4.981126E-1,-6.588E-2,6.387432E-2,4.002801E-1,-6.358473E-1,-1.8825018E-1,-2.662918E-1,7.168827E-2,-4.1978106E-1,1.0197642E-1,2.9833812E-1,6.2053686E-1,-9.530205E-1,-5.362889E-1,-4.0398154E-1,-3.5871986E-2,-4.0630472E-1,-2.004031E-2,-1.4415525E-1,2.059781E-1,-7.224825E-1,-2.8999063E-1,1.298291E-1,-4.8936194E-1,1.7648588E-1,5.126796E-1,6.733736E-1,3.4730312E-1,-1.0019888E0,-7.68579E-1,-6.5575814E-1,-2.7900335E-1,-5.820401E-1,-1.3357657E-1,-7.3200196E-2,9.1561383E-1,-5.0504047E-1,-1.5315646E-1,-1.5666035E-1,1.9691356E-1,-1.1314815E-1,-9.817431E-1,1.3896663E-1,5.3859025E-1,-7.922799E-1,2.6223627E-1,-5.758049E-1,-5.195432E-2,-1.0000561E0,1.4244983E-1,-7.020864E-1,-3.5082492E-1,-9.5684916E-1,1.8856311E-1,3.1373334E-1,6.150658E-1,6.2327015E-1,8.0324227E-1,5.9852964E-1,2.4650793E-1,5.3854216E-2,-3.0184025E-1,-2.6976094E-1,-1.2574099E-1,-1.6440858E-1,-2.726944E-1,-9.398643E-2,1.9436206E-1,-6.511695E-2,-1.9449411E-1,6.2071193E-2,-6.938896E-2,-4.066521E-2,1.183996E-1,3.4643188E-1,-3.0583657E-2,-1.0605808E-1,-2.0584571E-1,4.4382602E-2,-9.4264746E-2,-7.706145E-2,4.620223E-2,-4.4123712E-1,6.454762E-2,-1.3090503E-1,-8.218065E-3,2.8269876E-2,-3.3785933E-1,-2.0186561E-1,4.806539E-2,1.6777489E-1,-1.3760732E-1,-2.5008935E-1,2.2537266E-1,1.3694622E-1,-4.817608E-1,-1.3100077E-1,-3.051186E-1,2.6739153E-1,-3.0095497E-2,-3.5904717E-1,-7.388047E-2,-1.5237251E-2,6.455068E-2,-2.3992296E-1,3.6628287E-2,-5.257379E-1,-9.655306E-2,-5.1519006E-1,-1.4110546E-1,8.607E-3,8.096411E-2,-2.9324314E-1,9.845127E-2,1.6172442E-1,2.2773522E-1,1.374974E-1,2.0282063E-1,1.3560024E-1,2.480871E-1,-2.8734156E-1,1.8708938E-1,1.0004243E-1,-4.6838527E-3],"categories":[],"categories_nodes":[],"categories_segments":[],"categories_sizes":[],"default_left":[0,0,0,0,0,0,0,0,0,0,0,0,0,0,0,0,0,0,0,0,0,0,0,0,0,0,0,0,0,0,0,0,0,0,0,0,0,0,0,0,0,0,0,0,0,0,0,0,0,0,0,0,0,0,0,0,0,0,0,0,0,0,0,0,0,0,0,0,0,0,0,0,0,0,0,0,0,0,0,0,0,0,0,0,0,0,0,0,0,0,0,0,0,0,0,0,0,0,0,0,0,0,0,0,0,0,0,0,0,0,0,0,0,0,0,0,0,0,0,0,0,0,0,0,0,0,0],"id":4,"left_children":[1,3,5,7,9,11,13,15,17,19,21,23,25,27,29,31,33,35,37,39,41,43,45,47,49,51,53,55,57,59,61,63,65,67,69,71,73,75,77,79,81,83,85,87,89,91,93,95,97,99,101,103,105,107,109,111,113,115,117,119,121,123,125,-1,-1,-1,-1,-1,-1,-1,-1,-1,-1,-1,-1,-1,-1,-1,-1,-1,-1,-1,-1,-1,-1,-1,-1,-1,-1,-1,-1,-1,-1,-1,-1,-1,-1,-1,-1,-1,-1,-1,-1,-1,-1,-1,-1,-1,-1,-1,-1,-1,-1,-1,-1,-1,-1,-1,-1,-1,-1,-1,-1,-1,-1,-1,-1],"loss_changes":[3.0668638E3,1.2463568E3,9.8132007E2,5.264758E2,4.0050662E2,4.896159E2,2.8887256E2,2.692002E2,1.2484444E2,2.0385431E2,2.4971986E2,7.601837E1,4.056814E2,2.2981122E2,5.855603E1,1.7648071E1,1.9970642E2,7.5619446E1,7.916643E1,9.413934E1,6.35886E1,8.571073E1,1.18296265E2,4.0181305E1,9.247274E1,3.3553943E2,3.2406586E1,7.701601E1,6.478302E1,2.169629E1,1.6614204E1,8.056885E0,1.9347488E1,1.2062903E2,6.5788055E1,2.2782043E1,2.0859938E1,6.259524E1,2.0595604E1,7.4159E1,5.1407852E1,4.1019375E1,2.554079E1,8.833768E1,1.842102E1,7.639309E1,1.8597382E1,3.5306305E1,1.4974916E1,3.7480682E1,3.398163E1,3.826004E1,3.2688425E2,3.5189423E1,2.6774292E1,2.1150658E1,7.221217E1,2.0563965E1,2.2631287E1,2.116687E1,7.5078735E0,7.9743347E0,1.0812712E1,0E0,0E0,0E0,0E0,0E0,0E0,0E0,0E0,0E0,0E0,0E0,0E0,0E0,0E0,0E0,0E0,0E0,0E0,0E0,0E0,0E0,0E0,0E0,0E0,0E0,0E0,0E0,0E0,0E0,0E0,0E0,0E0,0E0,0E0,0E0,0E0,0E0,0E0,0E0,0E0,0E0,0E0,0E0,0E0,0E0,0E0,0E0,0E0,0E0,0E0,0E0,0E0,0E0,0E0,0E0,0E0,0E0,0E0,0E0,0E0,0E0,0E0,0E0,0E0],"parents":[2147483647,0,0,1,1,2,2,3,3,4,4,5,5,6,6,7,7,8,8,9,9,10,10,11,11,12,12,13,13,14,14,15,15,16,16,17,17,18,18,19,19,20,20,21,21,22,22,23,23,24,24,25,25,26,26,27,27,28,28,29,29,30,30,31,31,32,32,33,33,34,34,35,35,36,36,37,37,38,38,39,39,40,40,41,41,42,42,43,43,44,44,45,45,46,46,47,47,48,48,49,49,50,50,51,51,52,52,53,53,54,54,55,55,56,56,57,57,58,58,59,59,60,60,61,61,62,62],"right_children":[2,4,6,8,10,12,14,16,18,20,22,24,26,28,30,32,34,36,38,40,42,44,46,48,50,52,54,56,58,60,62,64,66,68,70,72,74,76,78,80,82,84,86,88,90,92,94,96,98,100,102,104,106,108,110,112,114,116,118,120,122,124,126,-1,-1,-1,-1,-1,-1,-1,-1,-1,-1,-1,-1,-1,-1,-1,-1,-1,-1,-1,-1,-1,-1,-1,-1,-1,-1,-1,-1,-1,-1,-1,-1,-1,-1,-1,-1,-1,-1,-1,-1,-1,-1,-1,-1,-1,-1,-1,-1,-1,-1,-1,-1,-1,-1,-1,-1,-1,-1,-1,-1,-1,-1,-1,-1],"split_conditions":[1E0,3E0,1E0,1E1,8E0,2E0,1E0,1.3953489E-1,1.627907E-1,1E0,1.744186E-1,9E0,1E0,2.6744187E-1,1.3E1,1E0,1E0,1E0,1E0,2.5581396E-1,4E0,1E0,1E0,3.255814E-1,1E0,1E0,1E0,1E0,1E0,1E0,1E0,3E0,1E0,3.3333335E-2,1E0,1E0,5E0,1E0,8E0,3.3333335E-2,5E0,2.6744187E-1,2E0,1.1627907E-1,9.3023255E-2,1E0,1E0,1E0,1E-1,8E0,4E0,1.1E1,1.744186E-1,2.9069766E-1,1E0,9E0,1E0,1E0,3.604651E-1,1.8604651E-1,1.2790698E-1,9.3023255E-2,6E0,5.3854216E-2,-3.0184025E-1,-2.6976094E-1,-1.2574099E-1,-1.6440858E-1,-2.726944E-1,-9.398643E-2,1.9436206E-1,-6.511695E-2,-1.9449411E-1,6.2071193E-2,-6.938896E-2,-4.066521E-2,1.183996E-1,3.4643188E-1,-3.0583657E-2,-1.0605808E-1,-2.0584571E-1,4.4382602E-2,-9.4264746E-2,-7.706145E-2,4.620223E-2,-4.4123712E-1,6.454762E-2,-1.3090503E-1,-8.218065E-3,2.8269876E-2,-3.3785933E-1,-2.0186561E-1,4.806539E-2,1.6777489E-1,-1.3760732E-1,-2.5008935E-1,2.2537266E-1,1.3694622E-1,-4.817608E-1,-1.3100077E-1,-3.051186E-1,2.6739153E-1,-3.0095497E-2,-3.5904717E-1,-7.388047E-2,-1.5237251E-2,6.455068E-2,-2.3992296E-1,3.6628287E-2,-5.257379E-1,-9.655306E-2,-5.1519006E-1,-1.4110546E-1,8.607E-3,8.096411E-2,-2.9324314E-1,9.845127E-2,1.6172442E-1,2.2773522E-1,1.374974E-1,2.0282063E-1,1.3560024E-1,2.480871E-1,-2.8734156E-1,1.8708938E-1,1.0004243E-1,-4.6838527E-3],"split_indices":[0,10,13,15,15,10,6,3,3,1,3,15,9,3,15,1,1,14,5,3,10,9,6,3,14,2,14,2,1,5,8,16,14,11,6,7,16,13,17,11,17,3,15,3,3,2,9,5,12,17,16,15,3,3,2,15,1,2,3,3,3,3,16,0,0,0,0,0,0,0,0,0,0,0,0,0,0,0,0,0,0,0,0,0,0,0,0,0,0,0,0,0,0,0,0,0,0,0,0,0,0,0,0,0,0,0,0,0,0,0,0,0,0,0,0,0,0,0,0,0,0,0,0,0,0,0,0],"split_type":[0,0,0,0,0,0,0,0,0,0,0,0,0,0,0,0,0,0,0,0,0,0,0,0,0,0,0,0,0,0,0,0,0,0,0,0,0,0,0,0,0,0,0,0,0,0,0,0,0,0,0,0,0,0,0,0,0,0,0,0,0,0,0,0,0,0,0,0,0,0,0,0,0,0,0,0,0,0,0,0,0,0,0,0,0,0,0,0,0,0,0,0,0,0,0,0,0,0,0,0,0,0,0,0,0,0,0,0,0,0,0,0,0,0,0,0,0,0,0,0,0,0,0,0,0,0,0],"sum_hessian":[6.630067E4,2.6862621E4,3.9438055E4,1.2337575E4,1.4525046E4,2.6565395E4,1.287266E4,8.540326E3,3.7972493E3,5.911759E3,8.613287E3,1.9392451E3,2.4626148E4,8.801429E3,4.0712322E3,2.0382598E3,6.5020664E3,1.57118E3,2.2260693E3,3.7684534E3,2.1433057E3,3.3035042E3,5.309783E3,5.805953E2,1.3586498E3,2.3519152E4,1.106997E3,5.612543E3,3.188885E3,3.4102993E3,6.60933E2,1.6071396E3,4.311201E2,4.439198E3,2.0628682E3,9.4666174E2,6.2451825E2,2.1429224E3,8.314698E1,2.7103408E3,1.0581125E3,1.3153085E3,8.279972E2,3.1866702E3,1.1683387E2,4.4205845E3,8.891984E2,5.423487E2,3.824657E1,6.167221E2,7.4192773E2,2.5894092E2,2.326021E4,4.3499365E2,6.720033E2,5.83538E1,5.5541895E3,1.0848953E3,2.1039897E3,2.465072E3,9.452272E2,1.878325E2,4.7310046E2,5.471068E0,1.6016686E3,3.1266898E2,1.18451126E2,3.1164998E3,1.3226982E3,1.9899238E3,7.2944374E1,1.4613553E2,8.0052625E2,1.3902019E2,4.8549808E2,1.8915531E3,2.513692E2,6.721456E1,1.5932418E1,1.4773663E3,1.2329745E3,3.687745E2,6.89338E2,9.9464276E2,3.2066565E2,8.098939E0,8.1989825E2,6.6735956E2,2.5193105E3,1.3870031E1,1.0296384E2,1.11980865E2,4.3086035E3,8.715823E2,1.7616148E1,5.286461E2,1.3702608E1,3.5328636E1,2.9179342E0,4.7038992E2,1.4633217E2,3.5335644E1,7.0659204E2,2.0487334E2,5.4067585E1,6.3599233E3,1.6900287E4,3.8893817E2,4.6055466E1,1.2408731E1,6.5959454E2,2.1779715E1,3.657409E1,1.8730491E3,3.6811404E3,1.1258939E1,1.0736364E3,1.3805292E3,7.234606E2,6.0007776E2,1.8649943E3,6.105099E1,8.841762E2,2.391616E0,1.8544089E2,3.550344E2,1.1806607E2],"tree_param":{"num_deleted":"0","num_feature":"18","num_nodes":"127","size_leaf_vector":"1"}},{"base_weights":[-3.973275E-3,-1.9662823E-1,1.5594025E-1,-3.7696105E-1,-3.0098928E-2,8.8447064E-2,4.0926066E-1,-5.8690614E-1,-2.151949E-1,-1.885076E-1,1.539995E-1,2.3741756E-1,-2.253525E-2,3.148604E-1,5.359392E-1,-7.7932554E-1,-4.3670115E-1,-4.268204E-2,-3.5333338E-1,-3.4199432E-1,-1.6300011E-2,9.663532E-2,4.7612894E-1,1.8130782E-1,4.0768108E-1,-3.7893972E-1,2.6703946E-2,-4.357462E-1,3.3528394E-1,5.498185E-1,-5.1584013E-2,-8.5211074E-1,-5.2273947E-1,-7.4418247E-1,-3.2790905E-1,-5.424001E-1,1.22083295E-2,-6.297437E-1,-2.7572116E-1,-9.971936E-2,-4.8013693E-1,-2.0818886E-1,1.338435E-1,-3.668583E-2,2.2854304E-1,4.0956143E-1,6.788795E-1,-1.1138613E-2,2.3754138E-1,-6.007653E-2,4.2871293E-1,-7.867652E-1,-3.0442122E-1,-1.1404075E-1,1.3976517E-1,-1.657831E-1,-1.1297009E0,5.127085E-1,2.6901376E-1,4.915665E-1,6.7280346E-1,-1.2621775E0,8.44356E-2,-2.9546443E-1,-2.337266E-1,-2.3778978E-1,-1.0776981E-1,2.5135847E-3,-2.3570469E-1,-1.4365514E-1,-2.3527235E-2,-2.264599E-1,-5.3641338E-2,-2.5284475E-1,1.2548439E-2,-2.00058E-1,1.4065614E-1,-9.7307704E-2,-1.398498E-3,-2.4494055E-1,-3.581454E-3,-1.3162641E-1,-3.3537188E-1,-1.0370259E-1,7.6220915E-2,-7.324215E-2,5.619182E-2,-3.2560837E-1,-4.5556296E-3,3.5620317E-2,1.1279285E-1,1.1002866E-1,1.8540204E-1,2.1659765E-1,-2.4675034E-2,1.4591416E-2,-8.955613E-2,-8.337604E-2,7.691538E-2,4.5048557E-2,-1.7081375E-1,2.2653309E-1,1.208976E-1,-2.8546333E-1,-1.6509676E-1,-2.4754892E-1,-7.562813E-2,-9.2009686E-2,3.4778826E-3,2.8954303E-2,1.10504575E-1,4.8339136E-2,-2.1935819E-1,-3.9365855E-1,-3.90791E-2,-1.2585448E-1,1.5731657E-1,8.457901E-2,-2.1920839E-1,9.3008325E-2,1.7015152E-1,2.1754767E-1,1.6027501E-1,8.805843E-2,-6.964255E-1,4.4791147E-2,-5.509141E-1],"categories":[],"categories_nodes":[],"categories_segments":[],"categories_sizes":[],"default_left":[0,0,0,0,0,0,0,0,0,0,0,0,0,0,0,0,0,0,0,0,0,0,0,0,0,0,0,0,0,0,0,0,0,0,0,0,0,0,0,0,0,0,0,0,0,0,0,0,0,0,0,0,0,0,0,0,0,0,0,0,0,0,0,0,0,0,0,0,0,0,0,0,0,0,0,0,0,0,0,0,0,0,0,0,0,0,0,0,0,0,0,0,0,0,0,0,0,0,0,0,0,0,0,0,0,0,0,0,0,0,0,0,0,0,0,0,0,0,0,0,0,0,0,0,0,0,0],"id":5,"left_children":[1,3,5,7,9,11,13,15,17,19,21,23,25,27,29,31,33,35,37,39,41,43,45,47,49,51,53,55,57,59,61,63,65,67,69,71,73,75,77,79,81,83,85,87,89,91,93,95,97,99,101,103,105,107,109,111,113,115,117,119,121,123,125,-1,-1,-1,-1,-1,-1,-1,-1,-1,-1,-1,-1,-1,-1,-1,-1,-1,-1,-1,-1,-1,-1,-1,-1,-1,-1,-1,-1,-1,-1,-1,-1,-1,-1,-1,-1,-1,-1,-1,-1,-1,-1,-1,-1,-1,-1,-1,-1,-1,-1,-1,-1,-1,-1,-1,-1,-1,-1,-1,-1,-1,-1,-1,-1],"loss_changes":[1.9714717E3,8.7161865E2,5.9781384E2,4.7312427E2,4.4012262E2,4.5651883E2,8.780005E1,1.7491553E2,1.8757993E2,2.1440372E2,1.2893651E2,1.1254773E2,2.7771564E2,6.4800995E1,2.5630371E1,4.917627E1,1.1374805E2,9.605471E1,9.360498E1,1.43499E2,1.1019619E2,1.0422734E2,1.3958862E1,9.597635E1,2.876361E1,5.813861E1,2.2127635E2,2.0823408E1,4.8144714E1,2.1643738E1,1.2188323E1,1.9285034E1,2.574025E1,2.7796112E1,9.481735E1,2.663903E1,7.996367E1,3.935797E1,4.50188E1,9.806225E1,7.1593994E1,1.0679309E2,4.340973E1,6.645595E1,4.818428E1,6.8804474E0,8.565079E0,3.448118E1,6.6731964E1,1.3638011E1,2.3165344E1,1.1014114E1,4.4093323E1,1.4993825E2,7.619917E1,1.5258719E1,5.5266304E0,1.2366974E1,3.883766E1,2.8443115E1,6.7443237E0,1.2997406E1,8.609669E0,0E0,0E0,0E0,0E0,0E0,0E0,0E0,0E0,0E0,0E0,0E0,0E0,0E0,0E0,0E0,0E0,0E0,0E0,0E0,0E0,0E0,0E0,0E0,0E0,0E0,0E0,0E0,0E0,0E0,0E0,0E0,0E0,0E0,0E0,0E0,0E0,0E0,0E0,0E0,0E0,0E0,0E0,0E0,0E0,0E0,0E0,0E0,0E0,0E0,0E0,0E0,0E0,0E0,0E0,0E0,0E0,0E0,0E0,0E0,0E0,0E0,0E0,0E0,0E0],"parents":[2147483647,0,0,1,1,2,2,3,3,4,4,5,5,6,6,7,7,8,8,9,9,10,10,11,11,12,12,13,13,14,14,15,15,16,16,17,17,18,18,19,19,20,20,21,21,22,22,23,23,24,24,25,25,26,26,27,27,28,28,29,29,30,30,31,31,32,32,33,33,34,34,35,35,36,36,37,37,38,38,39,39,40,40,41,41,42,42,43,43,44,44,45,45,46,46,47,47,48,48,49,49,50,50,51,51,52,52,53,53,54,54,55,55,56,56,57,57,58,58,59,59,60,60,61,61,62,62],"right_children":[2,4,6,8,10,12,14,16,18,20,22,24,26,28,30,32,34,36,38,40,42,44,46,48,50,52,54,56,58,60,62,64,66,68,70,72,74,76,78,80,82,84,86,88,90,92,94,96,98,100,102,104,106,108,110,112,114,116,118,120,122,124,126,-1,-1,-1,-1,-1,-1,-1,-1,-1,-1,-1,-1,-1,-1,-1,-1,-1,-1,-1,-1,-1,-1,-1,-1,-1,-1,-1,-1,-1,-1,-1,-1,-1,-1,-1,-1,-1,-1,-1,-1,-1,-1,-1,-1,-1,-1,-1,-1,-1,-1,-1,-1,-1,-1,-1,-1,-1,-1,-1,-1,-1,-1,-1,-1],"split_conditions":[1E0,9E0,2.6744187E-1,3E0,1.9767442E-1,6E0,4E0,6E0,6E0,1E0,1E0,1E0,7E0,4E0,1E0,2.3255815E-1,2E0,1.2790698E-1,5E0,5E0,1.1E1,2.4418604E-1,2.9069766E-1,1.5116279E-1,1.0465116E-1,4E0,1E0,6E0,5E0,5E0,1E0,2E0,4E0,3E0,2.2093023E-1,1E0,2E0,4.5348838E-1,3.139535E-1,1.0465116E-1,1E0,4E0,2E0,1E0,1E0,1E0,4.7674417E-1,6E0,5E0,9.6666664E-1,3E0,1.9767442E-1,2E0,1.744186E-1,1E0,1E0,1.6666667E-1,1E0,6.511628E-1,8E0,1E0,2.7906978E-1,5.116279E-1,-2.9546443E-1,-2.337266E-1,-2.3778978E-1,-1.0776981E-1,2.5135847E-3,-2.3570469E-1,-1.4365514E-1,-2.3527235E-2,-2.264599E-1,-5.3641338E-2,-2.5284475E-1,1.2548439E-2,-2.00058E-1,1.4065614E-1,-9.7307704E-2,-1.398498E-3,-2.4494055E-1,-3.581454E-3,-1.3162641E-1,-3.3537188E-1,-1.0370259E-1,7.6220915E-2,-7.324215E-2,5.619182E-2,-3.2560837E-1,-4.5556296E-3,3.5620317E-2,1.1279285E-1,1.1002866E-1,1.8540204E-1,2.1659765E-1,-2.4675034E-2,1.4591416E-2,-8.955613E-2,-8.337604E-2,7.691538E-2,4.5048557E-2,-1.7081375E-1,2.2653309E-1,1.208976E-1,-2.8546333E-1,-1.6509676E-1,-2.4754892E-1,-7.562813E-2,-9.2009686E-2,3.4778826E-3,2.8954303E-2,1.10504575E-1,4.8339136E-2,-2.1935819E-1,-3.9365855E-1,-3.90791E-2,-1.2585448E-1,1.5731657E-1,8.457901E-2,-2.1920839E-1,9.3008325E-2,1.7015152E-1,2.1754767E-1,1.6027501E-1,8.805843E-2,-6.964255E-1,4.4791147E-2,-5.509141E-1],"split_indices":[1,15,3,10,3,17,10,15,17,14,6,6,15,15,9,3,10,3,15,17,15,3,3,3,3,15,14,16,17,10,0,10,15,17,3,14,15,3,3,3,9,10,10,2,14,5,3,16,15,12,16,3,10,3,13,4,12,2,3,15,11,3,3,0,0,0,0,0,0,0,0,0,0,0,0,0,0,0,0,0,0,0,0,0,0,0,0,0,0,0,0,0,0,0,0,0,0,0,0,0,0,0,0,0,0,0,0,0,0,0,0,0,0,0,0,0,0,0,0,0,0,0,0,0,0,0,0],"split_type":[0,0,0,0,0,0,0,0,0,0,0,0,0,0,0,0,0,0,0,0,0,0,0,0,0,0,0,0,0,0,0,0,0,0,0,0,0,0,0,0,0,0,0,0,0,0,0,0,0,0,0,0,0,0,0,0,0,0,0,0,0,0,0,0,0,0,0,0,0,0,0,0,0,0,0,0,0,0,0,0,0,0,0,0,0,0,0,0,0,0,0,0,0,0,0,0,0,0,0,0,0,0,0,0,0,0,0,0,0,0,0,0,0,0,0,0,0,0,0,0,0,0,0,0,0,0,0],"sum_hessian":[6.3989934E4,2.9023637E4,3.49663E4,1.3933708E4,1.5089928E4,2.761111E4,7.3551895E3,6.062709E3,7.870999E3,8.1108613E3,6.9790664E3,1.1787595E4,1.5823515E4,4.2165337E3,3.1386558E3,2.6560283E3,3.4066807E3,3.5006082E3,4.3703906E3,4.288015E3,3.8228464E3,5.9252153E3,1.0538511E3,8.86743E3,2.920165E3,1.91993E3,1.3903585E4,1.1115144E2,4.1053823E3,3.066284E3,7.237195E1,2.0672852E3,5.887431E2,8.8880164E2,2.5178792E3,3.4558105E2,3.155027E3,9.565593E2,3.4138315E3,1.55775E3,2.7302651E3,1.6779626E3,2.1448838E3,2.947179E3,2.9780366E3,7.956437E2,2.582074E2,2.0053573E3,6.8620723E3,1.2557031E2,2.7945947E3,2.9513797E2,1.624792E3,6.193533E3,7.710052E3,8.091334E1,3.0238104E1,1.114583E3,2.9907993E3,2.0841296E3,9.8215424E2,6.4739065E0,6.589804E1,7.291099E2,1.3381753E3,2.2066078E2,3.6808234E2,4.6492897E1,8.423087E2,1.5681876E3,9.4969147E2,2.174428E2,1.2813826E2,1.0471793E2,3.050309E3,9.256781E2,3.08812E1,2.8942942E3,5.1953723E2,1.6905821E2,1.3886918E3,2.5654888E3,1.6477628E2,1.2934984E3,3.844643E2,2.653406E2,1.8795431E3,5.8216293E1,2.8889626E3,1.7078383E3,1.2701984E3,6.62396E2,1.3324765E2,2.4441447E2,1.37929325E1,1.6607457E3,3.446116E2,2.4151837E2,6.620554E3,8.93798E1,3.6190514E1,2.0206339E2,2.5925315E3,1.7214444E2,1.2299354E2,1.4701257E2,1.4777795E3,2.4440942E3,3.749439E3,6.4845215E3,1.2255302E3,5.172285E1,2.9190489E1,2.5304625E1,4.9334793E0,1.3360064E1,1.101223E3,2.9533599E3,3.7439568E1,6.142732E2,1.4698564E3,7.097327E2,2.7242154E2,2.9152184E0,3.5586882E0,6.4637436E1,1.260612E0],"tree_param":{"num_deleted":"0","num_feature":"18","num_nodes":"127","size_leaf_vector":"1"}},{"base_weights":[-3.808344E-3,-8.77182E-2,2.1932076E-1,-4.4282275E-1,-3.507743E-2,1.1197705E-1,2.9663226E-1,-6.336763E-1,-2.634411E-1,-9.008532E-1,-1.690125E-2,-1.0097421E-1,1.477398E-1,1.9261697E-1,3.775224E-1,-8.8485664E-1,-5.6905186E-1,-3.2135546E-1,4.1925064E-1,-9.4097537E-1,-6.2061075E-2,8.641467E-3,-5.554205E-1,-2.8113663E-1,4.5087643E-2,-4.782043E-1,1.5870853E-1,-6.314899E-1,2.0966987E-1,3.493708E-1,5.9984446E-1,-3.940281E-2,-9.223292E-1,-4.6109572E-1,-7.116143E-1,-1.1320616E0,-2.827394E-1,-9.9851094E-2,6.236194E-1,-6.8965566E-1,-1.0323924E0,-5.7136226E-1,6.6584903E-1,-2.6981154E-1,4.9331747E-2,-8.037725E-1,-3.5971236E-1,-3.6763117E-1,7.805232E-2,2.765788E-1,-9.738273E-2,1.0749035E-2,-9.680146E-1,1.7349224E-1,-2.4205597E-1,-2.8097543E-1,-8.878627E-1,9.109935E-2,2.9000106E-1,3.7866062E-1,1.14215635E-1,4.5992827E-1,6.780672E-1,3.091512E-1,-3.191292E-1,-2.945471E-1,-2.253277E-1,-3.3682367E-1,-1.2474858E-1,-2.2280277E-1,5.4256314E-5,-2.5880384E-1,-3.8060504E-1,-1.5742801E-1,-4.958338E-2,1.22594915E-1,-2.3990914E-1,2.6432672E-1,9.638273E-2,-2.518938E-1,1.4886032E-1,-3.189187E-1,-5.4850843E-2,1.1419104E-1,-4.2938954E-1,-3.1100774E-1,3.030114E-1,-1.3833177E-1,-4.4673003E-2,4.082993E-3,8.839938E-2,-2.5130704E-1,1.6352338E-1,-1.4388267E-2,-1.4019713E-1,-2.3225914E-1,-7.3031E-2,1.8498278E-1,-1.5776257E-1,1.3159832E-1,-5.0619E-2,-6.6934384E-2,9.563542E-2,-9.957334E-2,2.861777E-1,-1.1929789E-1,-4.5303765E-1,1.3316594E-1,4.6217635E-2,-1.8265706E-1,-1.8585157E-2,-4.5046094E-1,-3.2969977E-4,-7.884741E-2,-3.542516E-1,1.5750673E-2,1.186687E-1,3.030361E-2,1.0095299E-1,1.0476052E-1,1.6808683E-1,1.2385175E-2,8.396754E-2,2.0860018E-1,7.228036E-2,2.1621574E-1,-4.2843606E-2],"categories":[],"categories_nodes":[],"categories_segments":[],"categories_sizes":[],"default_left":[0,0,0,0,0,0,0,0,0,0,0,0,0,0,0,0,0,0,0,0,0,0,0,0,0,0,0,0,0,0,0,0,0,0,0,0,0,0,0,0,0,0,0,0,0,0,0,0,0,0,0,0,0,0,0,0,0,0,0,0,0,0,0,0,0,0,0,0,0,0,0,0,0,0,0,0,0,0,0,0,0,0,0,0,0,0,0,0,0,0,0,0,0,0,0,0,0,0,0,0,0,0,0,0,0,0,0,0,0,0,0,0,0,0,0,0,0,0,0,0,0,0,0,0,0,0,0],"id":6,"left_children":[1,3,5,7,9,11,13,15,17,19,21,23,25,27,29,31,33,35,37,39,41,43,45,47,49,51,53,55,57,59,61,63,65,67,69,71,73,75,77,79,81,83,85,87,89,91,93,95,97,99,101,103,105,107,109,111,113,115,117,119,121,123,125,-1,-1,-1,-1,-1,-1,-1,-1,-1,-1,-1,-1,-1,-1,-1,-1,-1,-1,-1,-1,-1,-1,-1,-1,-1,-1,-1,-1,-1,-1,-1,-1,-1,-1,-1,-1,-1,-1,-1,-1,-1,-1,-1,-1,-1,-1,-1,-1,-1,-1,-1,-1,-1,-1,-1,-1,-1,-1,-1,-1,-1,-1,-1,-1],"loss_changes":[1.1620868E3,8.4314514E2,1.4073676E2,1.991925E2,6.181706E2,5.4112892E1,8.288745E1,4.528235E1,1.1888638E2,2.712555E1,5.292632E2,2.6906586E1,4.1836884E1,6.0779587E1,3.4498352E1,1.8193085E1,3.4242798E1,8.637332E1,2.5025242E1,1.6997131E1,1.4447219E1,4.1623813E2,8.43985E1,1.4249233E1,1.867022E1,2.515719E1,3.546306E1,7.634815E0,4.025197E1,3.3876038E1,6.494461E0,2.9005503E1,4.875305E0,3.7903778E1,2.1360962E1,3.5270996E0,7.509508E1,2.428823E1,1.28704605E1,3.7520676E1,1.4480225E1,1.9261295E1,1.0470808E1,1.0825882E2,2.8089597E2,3.555124E1,3.272988E1,1.844701E1,2.9484919E1,1.5636633E1,1.841966E1,1.7618454E1,1.5621357E1,3.023198E1,1.4040891E1,1.31592865E1,8.884277E0,2.00663E1,2.2119507E1,2.3233276E1,6.5964622E0,1.1489059E1,1.3994827E1,0E0,0E0,0E0,0E0,0E0,0E0,0E0,0E0,0E0,0E0,0E0,0E0,0E0,0E0,0E0,0E0,0E0,0E0,0E0,0E0,0E0,0E0,0E0,0E0,0E0,0E0,0E0,0E0,0E0,0E0,0E0,0E0,0E0,0E0,0E0,0E0,0E0,0E0,0E0,0E0,0E0,0E0,0E0,0E0,0E0,0E0,0E0,0E0,0E0,0E0,0E0,0E0,0E0,0E0,0E0,0E0,0E0,0E0,0E0,0E0,0E0,0E0,0E0,0E0],"parents":[2147483647,0,0,1,1,2,2,3,3,4,4,5,5,6,6,7,7,8,8,9,9,10,10,11,11,12,12,13,13,14,14,15,15,16,16,17,17,18,18,19,19,20,20,21,21,22,22,23,23,24,24,25,25,26,26,27,27,28,28,29,29,30,30,31,31,32,32,33,33,34,34,35,35,36,36,37,37,38,38,39,39,40,40,41,41,42,42,43,43,44,44,45,45,46,46,47,47,48,48,49,49,50,50,51,51,52,52,53,53,54,54,55,55,56,56,57,57,58,58,59,59,60,60,61,61,62,62],"right_children":[2,4,6,8,10,12,14,16,18,20,22,24,26,28,30,32,34,36,38,40,42,44,46,48,50,52,54,56,58,60,62,64,66,68,70,72,74,76,78,80,82,84,86,88,90,92,94,96,98,100,102,104,106,108,110,112,114,116,118,120,122,124,126,-1,-1,-1,-1,-1,-1,-1,-1,-1,-1,-1,-1,-1,-1,-1,-1,-1,-1,-1,-1,-1,-1,-1,-1,-1,-1,-1,-1,-1,-1,-1,-1,-1,-1,-1,-1,-1,-1,-1,-1,-1,-1,-1,-1,-1,-1,-1,-1,-1,-1,-1,-1,-1,-1,-1,-1,-1,-1,-1,-1,-1,-1,-1,-1],"split_conditions":[4E0,6E0,1.9767442E-1,1.9767442E-1,1E0,1.1627907E-1,9E0,2E0,1E0,1E0,1E0,1E0,1E0,1E0,3.604651E-1,2E0,3.3333335E-2,1E0,3.3333335E-2,5E0,6.666667E-2,1.3953489E-1,1E0,1E0,1E0,2E-1,1E0,1E-1,1E0,1.3E1,1E0,5E0,5E0,1E0,6.666667E-1,6E0,4E0,5E0,1E-1,1.3E1,3.255814E-1,1E0,1.5116279E-1,1E1,1E0,3.604651E-1,1E0,1E0,4E0,1.3E1,1E0,1E0,4E0,3E0,1.5116279E-1,1E0,1E0,1E0,6E0,1E0,5E0,5E0,5.4651165E-1,3.091512E-1,-3.191292E-1,-2.945471E-1,-2.253277E-1,-3.3682367E-1,-1.2474858E-1,-2.2280277E-1,5.4256314E-5,-2.5880384E-1,-3.8060504E-1,-1.5742801E-1,-4.958338E-2,1.22594915E-1,-2.3990914E-1,2.6432672E-1,9.638273E-2,-2.518938E-1,1.4886032E-1,-3.189187E-1,-5.4850843E-2,1.1419104E-1,-4.2938954E-1,-3.1100774E-1,3.030114E-1,-1.3833177E-1,-4.4673003E-2,4.082993E-3,8.839938E-2,-2.5130704E-1,1.6352338E-1,-1.4388267E-2,-1.4019713E-1,-2.3225914E-1,-7.3031E-2,1.8498278E-1,-1.5776257E-1,1.3159832E-1,-5.0619E-2,-6.6934384E-2,9.563542E-2,-9.957334E-2,2.861777E-1,-1.1929789E-1,-4.5303765E-1,1.3316594E-1,4.6217635E-2,-1.8265706E-1,-1.8585157E-2,-4.5046094E-1,-3.2969977E-4,-7.884741E-2,-3.542516E-1,1.5750673E-2,1.186687E-1,3.030361E-2,1.0095299E-1,1.0476052E-1,1.6808683E-1,1.2385175E-2,8.396754E-2,2.0860018E-1,7.228036E-2,2.1621574E-1,-4.2843606E-2],"split_indices":[10,15,3,3,2,3,15,10,13,6,9,1,2,2,3,17,11,2,12,17,12,3,1,6,4,12,9,11,1,15,1,16,15,2,12,17,15,17,11,15,3,7,3,15,6,3,7,8,17,15,5,6,17,16,3,8,8,6,15,5,10,16,3,0,0,0,0,0,0,0,0,0,0,0,0,0,0,0,0,0,0,0,0,0,0,0,0,0,0,0,0,0,0,0,0,0,0,0,0,0,0,0,0,0,0,0,0,0,0,0,0,0,0,0,0,0,0,0,0,0,0,0,0,0,0,0,0],"split_type":[0,0,0,0,0,0,0,0,0,0,0,0,0,0,0,0,0,0,0,0,0,0,0,0,0,0,0,0,0,0,0,0,0,0,0,0,0,0,0,0,0,0,0,0,0,0,0,0,0,0,0,0,0,0,0,0,0,0,0,0,0,0,0,0,0,0,0,0,0,0,0,0,0,0,0,0,0,0,0,0,0,0,0,0,0,0,0,0,0,0,0,0,0,0,0,0,0,0,0,0,0,0,0,0,0,0,0,0,0,0,0,0,0,0,0,0,0,0,0,0,0,0,0,0,0,0,0],"sum_hessian":[6.2066203E4,4.510474E4,1.6961467E4,5.8221587E3,3.928258E4,7.1024575E3,9.859009E3,2.8196514E3,3.0025073E3,8.067458E2,3.8475836E4,1.02100476E3,6.0814526E3,4.3144766E3,5.5445327E3,5.743999E2,2.2452515E3,2.7682034E3,2.3430399E2,7.698019E2,3.6943924E1,3.6734453E4,1.7413821E3,4.5672498E2,5.642798E2,1.0399948E2,5.977453E3,8.6737305E1,4.2277393E3,4.923646E3,6.208865E2,2.4465355E1,5.499346E2,1.2801136E3,9.6513776E2,1.2457416E2,2.6436294E3,6.6331566E1,1.6797241E2,2.0760558E2,5.621963E2,2.1862394E1,1.5081528E1,4.682868E3,3.2051584E4,7.6610034E2,9.7528174E2,3.6806866E2,8.865631E1,2.1461844E2,3.4966135E2,5.253472E1,5.1464756E1,5.7653438E3,2.1210938E2,3.7526634E1,4.9210674E1,1.708335E3,2.5194043E3,4.3777627E3,5.458834E2,2.2511162E2,3.9577487E2,1.1963711E1,1.2501644E1,4.0461993E2,1.4531464E2,8.044734E1,1.1996663E3,9.2474023E2,4.039753E1,4.438095E1,8.019321E1,8.6267816E2,1.7809512E3,3.865867E1,2.76729E1,8.968463E1,7.828778E1,1.8455457E2,2.3051E1,5.423649E2,1.9831343E1,1.0640316E1,1.1222079E1,2.1978426E0,1.2883685E1,1.8124065E3,2.870462E3,2.797878E4,4.0728042E3,7.476785E2,1.8421814E1,2.5063493E2,7.2464685E2,8.4901E1,2.8316766E2,4.685342E1,4.1802887E1,1.5735847E2,5.7259964E1,2.6888892E2,8.077243E1,3.901023E1,1.3524493E1,2.5923828E1,2.554093E1,3.8511197E2,5.380232E3,6.906723E1,1.4304214E2,6.1856365E0,3.1340996E1,1.6310583E1,3.290009E1,1.5171736E3,1.9116136E2,4.981879E2,2.0212164E3,3.7693267E3,6.08436E2,3.798987E2,1.6598471E2,1.0744226E2,1.1766936E2,3.763426E2,1.9432283E1],"tree_param":{"num_deleted":"0","num_feature":"18","num_nodes":"127","size_leaf_vector":"1"}},{"base_weights":[-3.6038733E-3,-1.6070259E-1,7.990101E-2,-4.3534383E-1,-9.861967E-2,-2.9608155E-2,1.5689522E-1,-5.639511E-1,-2.4566051E-1,-2.229657E-1,3.3202574E-2,-6.395285E-1,-1.4217937E-2,1.142518E-1,2.977509E-1,-7.614363E-1,-4.7774175E-1,-3.6795783E-1,-1.5431724E-2,-3.2655235E-2,-3.3286196E-1,-8.062258E-1,5.0872423E-2,-7.8756213E-1,-3.3932444E-1,-5.329337E-1,2.06658E-3,1.2872934E-1,-2.4322343E-1,2.5499254E-1,4.536236E-1,-1.5304008E-1,-8.0643666E-1,-3.7045974E-1,-6.4733744E-1,8.873701E-3,-4.44951E-1,3.4136977E-2,-1.1661402E0,-7.0571756E-1,8.792513E-4,-6.341548E-1,-2.578138E-1,-8.424327E-1,3.3983803E-1,-8.4944535E-3,2.9076415E-1,-9.0516186E-1,-3.1104958E-1,7.6535404E-1,-4.1525632E-1,-2.8355163E-1,-8.783771E-1,-6.5403566E-2,1.0965566E-1,2.6181335E-2,1.7426695E-1,-1.4352666E-1,-4.7759047E-1,2.0255247E-1,3.973284E-1,4.0168104E-1,5.860913E-1,1.4036769E-1,-2.676345E-1,-2.533295E-1,-1.2026772E-1,-3.0449528E-1,-9.910754E-2,-7.213081E-2,-2.0676866E-1,-5.3764302E-2,2.3668265E-1,-1.3987133E-1,2.6845363E-1,1.1925216E-1,-3.3692457E-2,-4.2236742E-1,1.5799168E-1,-1.16432525E-1,-2.8250954E-1,1.3806954E-1,-1.0781938E-2,-2.275515E-1,-1.05148934E-1,-6.862709E-2,-2.2583307E-1,-3.3968902E-1,-2.0676214E-1,-2.599039E-1,3.6498147E-1,-3.0565433E-2,4.0893693E-2,1.1686516E-1,4.5157835E-2,-2.8064534E-1,2.139538E-1,8.872407E-2,-2.5942373E-1,6.348139E-1,-2.0173678E-1,-2.3016436E-1,-4.1767415E-2,-2.2454245E-1,-6.4970045E-3,-1.3181752E-1,-3.235001E-1,-4.0847838E-2,1.7224904E-2,-9.923265E-2,3.8979646E-2,-1.9560169E-1,1.2270228E-2,-9.549703E-2,5.5400047E-2,-9.326926E-2,1.42218275E-2,-3.959688E-2,-1.93223E-1,-2.196002E-2,7.179244E-2,1.2879959E-1,-2.1414186E-1,4.6320382E-1,1.1807221E-1,1.8613464E-1,8.76252E-2],"categories":[],"categories_nodes":[],"categories_segments":[],"categories_sizes":[],"default_left":[0,0,0,0,0,0,0,0,0,0,0,0,0,0,0,0,0,0,0,0,0,0,0,0,0,0,0,0,0,0,0,0,0,0,0,0,0,0,0,0,0,0,0,0,0,0,0,0,0,0,0,0,0,0,0,0,0,0,0,0,0,0,0,0,0,0,0,0,0,0,0,0,0,0,0,0,0,0,0,0,0,0,0,0,0,0,0,0,0,0,0,0,0,0,0,0,0,0,0,0,0,0,0,0,0,0,0,0,0,0,0,0,0,0,0,0,0,0,0,0,0,0,0,0,0,0,0],"id":7,"left_children":[1,3,5,7,9,11,13,15,17,19,21,23,25,27,29,31,33,35,37,39,41,43,45,47,49,51,53,55,57,59,61,63,65,67,69,71,73,75,77,79,81,83,85,87,89,91,93,95,97,99,101,103,105,107,109,111,113,115,117,119,121,123,125,-1,-1,-1,-1,-1,-1,-1,-1,-1,-1,-1,-1,-1,-1,-1,-1,-1,-1,-1,-1,-1,-1,-1,-1,-1,-1,-1,-1,-1,-1,-1,-1,-1,-1,-1,-1,-1,-1,-1,-1,-1,-1,-1,-1,-1,-1,-1,-1,-1,-1,-1,-1,-1,-1,-1,-1,-1,-1,-1,-1,-1,-1,-1,-1],"loss_changes":[7.9542566E2,3.5876538E2,3.3381097E2,9.45036E1,2.8137207E2,1.5341643E2,1.3959613E2,3.8985657E1,4.4181725E1,1.847305E2,1.2364068E2,1.7609207E1,1.346768E2,9.238913E1,3.58851E1,1.9059479E1,2.908255E1,2.9739166E1,3.1153553E1,7.300971E1,1.2645044E2,7.4173355E0,1.1624457E2,1.4773117E1,1.16085615E1,4.1558167E1,1.1222663E2,8.00903E1,1.6169502E1,3.157547E1,7.756424E0,2.3129192E1,9.710571E0,2.5239334E1,1.0455627E1,2.5796373E1,2.4688278E1,2.79247E1,9.9718895E0,1.1140495E1,5.214478E1,3.9096985E1,6.43255E1,6.6313477E0,7.3733296E0,8.851073E1,2.237355E1,1.1215332E1,1.863427E1,1.891874E1,1.21922245E1,3.4480255E1,1.7343918E1,8.2579575E1,5.3255417E1,5.268919E1,6.0904297E1,1.56410055E1,1.1823578E1,3.1450539E1,4.087358E1,7.1484375E0,3.1014786E0,0E0,0E0,0E0,0E0,0E0,0E0,0E0,0E0,0E0,0E0,0E0,0E0,0E0,0E0,0E0,0E0,0E0,0E0,0E0,0E0,0E0,0E0,0E0,0E0,0E0,0E0,0E0,0E0,0E0,0E0,0E0,0E0,0E0,0E0,0E0,0E0,0E0,0E0,0E0,0E0,0E0,0E0,0E0,0E0,0E0,0E0,0E0,0E0,0E0,0E0,0E0,0E0,0E0,0E0,0E0,0E0,0E0,0E0,0E0,0E0,0E0,0E0,0E0,0E0],"parents":[2147483647,0,0,1,1,2,2,3,3,4,4,5,5,6,6,7,7,8,8,9,9,10,10,11,11,12,12,13,13,14,14,15,15,16,16,17,17,18,18,19,19,20,20,21,21,22,22,23,23,24,24,25,25,26,26,27,27,28,28,29,29,30,30,31,31,32,32,33,33,34,34,35,35,36,36,37,37,38,38,39,39,40,40,41,41,42,42,43,43,44,44,45,45,46,46,47,47,48,48,49,49,50,50,51,51,52,52,53,53,54,54,55,55,56,56,57,57,58,58,59,59,60,60,61,61,62,62],"right_children":[2,4,6,8,10,12,14,16,18,20,22,24,26,28,30,32,34,36,38,40,42,44,46,48,50,52,54,56,58,60,62,64,66,68,70,72,74,76,78,80,82,84,86,88,90,92,94,96,98,100,102,104,106,108,110,112,114,116,118,120,122,124,126,-1,-1,-1,-1,-1,-1,-1,-1,-1,-1,-1,-1,-1,-1,-1,-1,-1,-1,-1,-1,-1,-1,-1,-1,-1,-1,-1,-1,-1,-1,-1,-1,-1,-1,-1,-1,-1,-1,-1,-1,-1,-1,-1,-1,-1,-1,-1,-1,-1,-1,-1,-1,-1,-1,-1,-1,-1,-1,-1,-1,-1,-1,-1,-1],"split_conditions":[3E0,7E0,1E0,2.0930232E-1,1E0,1E0,2.6744187E-1,2E0,1E0,6E0,1E0,1.3333334E-1,3E0,1E0,1E0,3E0,3.3333335E-2,5E0,1E0,1.0465116E-1,2E0,7E-1,2.4418604E-1,4E0,3E0,1E0,4E0,9E0,6E0,3.604651E-1,5E0,5E0,1.9767442E-1,1E0,4E0,1.3333334E-1,1E0,5E0,7E-1,5E0,2E0,1.1E1,1E0,2E0,2.2093023E-1,1.1E1,8E0,1E0,1E0,4E0,8E0,1.744186E-1,1.5116279E-1,2.3255815E-1,1.0465116E-1,1E0,9.3023255E-2,5E0,7E0,6E0,6.8604654E-1,3E0,1.2E1,1.4036769E-1,-2.676345E-1,-2.533295E-1,-1.2026772E-1,-3.0449528E-1,-9.910754E-2,-7.213081E-2,-2.0676866E-1,-5.3764302E-2,2.3668265E-1,-1.3987133E-1,2.6845363E-1,1.1925216E-1,-3.3692457E-2,-4.2236742E-1,1.5799168E-1,-1.16432525E-1,-2.8250954E-1,1.3806954E-1,-1.0781938E-2,-2.275515E-1,-1.05148934E-1,-6.862709E-2,-2.2583307E-1,-3.3968902E-1,-2.0676214E-1,-2.599039E-1,3.6498147E-1,-3.0565433E-2,4.0893693E-2,1.1686516E-1,4.5157835E-2,-2.8064534E-1,2.139538E-1,8.872407E-2,-2.5942373E-1,6.348139E-1,-2.0173678E-1,-2.3016436E-1,-4.1767415E-2,-2.2454245E-1,-6.4970045E-3,-1.3181752E-1,-3.235001E-1,-4.0847838E-2,1.7224904E-2,-9.923265E-2,3.8979646E-2,-1.9560169E-1,1.2270228E-2,-9.549703E-2,5.5400047E-2,-9.326926E-2,1.42218275E-2,-3.959688E-2,-1.93223E-1,-2.196002E-2,7.179244E-2,1.2879959E-1,-2.1414186E-1,4.6320382E-1,1.1807221E-1,1.8613464E-1,8.76252E-2],"split_indices":[10,15,1,3,14,2,3,10,1,17,2,12,15,9,6,17,11,17,9,3,10,11,3,10,15,14,10,15,16,3,10,16,3,2,17,12,6,16,11,16,17,15,9,10,3,15,17,5,7,10,15,3,3,3,3,2,3,16,17,15,3,15,15,0,0,0,0,0,0,0,0,0,0,0,0,0,0,0,0,0,0,0,0,0,0,0,0,0,0,0,0,0,0,0,0,0,0,0,0,0,0,0,0,0,0,0,0,0,0,0,0,0,0,0,0,0,0,0,0,0,0,0,0,0,0,0,0],"split_type":[0,0,0,0,0,0,0,0,0,0,0,0,0,0,0,0,0,0,0,0,0,0,0,0,0,0,0,0,0,0,0,0,0,0,0,0,0,0,0,0,0,0,0,0,0,0,0,0,0,0,0,0,0,0,0,0,0,0,0,0,0,0,0,0,0,0,0,0,0,0,0,0,0,0,0,0,0,0,0,0,0,0,0,0,0,0,0,0,0,0,0,0,0,0,0,0,0,0,0,0,0,0,0,0,0,0,0,0,0,0,0,0,0,0,0,0,0,0,0,0,0,0,0,0,0,0,0],"sum_hessian":[6.0631867E4,2.1042826E4,3.9589043E4,3.878625E3,1.7164201E4,1.6343804E4,2.3245236E4,2.310267E3,1.5683579E3,8.832212E3,8.33199E3,4.012575E2,1.5942547E4,1.7844658E4,5.4005796E3,6.9966565E2,1.6106013E3,1.02387714E3,5.444808E2,3.2336704E3,5.5985415E3,1.7085141E2,8.1611387E3,2.6765216E2,1.3360535E2,4.842989E2,1.5458248E4,1.7150703E4,6.939543E2,4.2400913E3,1.1604882E3,4.8490105E1,6.5117554E2,9.884909E2,6.221105E2,1.7385492E2,8.500222E2,5.2292523E2,2.155555E1,1.5251598E2,3.0811545E3,1.1149492E3,4.4835923E3,1.6587593E2,4.9754853E0,6.5429062E3,1.6182322E3,2.1395107E2,5.370109E1,8.008982E0,1.2559637E2,2.823128E2,2.0198608E2,9.500675E3,5.9575723E3,5.2744727E3,1.187623E4,4.879843E2,2.0596996E2,3.1002905E3,1.139801E3,8.365117E2,3.2397647E2,2.6550594E1,2.1939508E1,5.9440436E2,5.6771164E1,5.6475903E1,9.32015E2,5.8698334E1,5.634121E2,1.4069998E2,3.3154945E1,8.3737006E2,1.2652165E1,1.4971854E2,3.732067E2,1.9009096E1,2.546454E0,6.614089E1,8.637508E1,2.2778763E2,2.8533667E3,7.7397845E2,3.4097076E2,4.2363584E3,2.472336E2,5.515218E1,1.1072375E2,2.0993102E0,2.876175E0,3.9777986E3,2.565108E3,9.483902E2,6.6984204E2,2.1043022E2,3.5208502E0,2.5844229E1,2.7856863E1,3.886372E0,4.122609E0,5.442347E1,7.11729E1,1.0105652E2,1.8125627E2,6.421209E1,1.3777399E2,6.0279165E3,3.4727585E3,2.6152847E2,5.696044E3,1.1112601E2,5.1633467E3,2.4494167E2,1.1631289E4,2.5970215E2,2.2828218E2,6.754639E1,1.3842357E2,3.6452405E2,2.7357664E3,1.1084874E3,3.131366E1,4.55974E0,8.3195197E2,2.89084E2,3.4892464E1],"tree_param":{"num_deleted":"0","num_feature":"18","num_nodes":"127","size_leaf_vector":"1"}},{"base_weights":[-3.4371046E-3,-3.3218268E-1,2.2808416E-2,-3.8953334E-1,4.156025E-1,-5.5475944E-1,3.3180512E-2,-5.287089E-1,-2.024707E-1,1.11105956E-1,8.2414013E-1,-3.485047E-1,-7.585332E-1,-4.9109556E-2,9.59672E-2,-5.82676E-1,-1.3438748E-1,-2.2740881E-1,5.6519437E-1,-8.409856E-1,2.0518804E-1,6.62775E-1,1.3847787E0,-4.1986042E-1,1.3752644E-1,-1.0535585E0,-6.4858574E-1,1.3887843E-2,-1.8922357E-1,4.203915E-2,1.7369829E-1,-7.2827536E-1,-4.4034067E-1,4.882799E-1,-2.9636228E-1,-2.5393784E-1,4.62843E-1,-2.0969255E-1,9.323782E-1,-1.0277879E0,1.5321735E-1,-3.7537384E-1,3.5680118E-1,8.64813E-1,-3.3964202E-1,6.8483657E-1,1.9647907E0,-5.7565314E-1,-2.4438682E-1,-6.0365754E-1,3.4496108E-1,2.2701326E-1,-1.0800216E0,-6.986319E-1,1.7038342E-1,3.0731492E-2,-4.4148752E-1,-2.9999763E-1,3.1070989E-2,8.884121E-2,-5.5431318E-2,2.1087235E-1,5.061215E-2,-1.8041141E-1,-2.5858918E-1,-1.4226726E-1,1.3715476E-1,3.305961E-1,-1.6115765E-1,-7.189513E-2,-4.054093E-1,-4.8955996E-2,-1.217339E-1,1.8649147E-1,-4.1176796E-1,-2.4077724E-1,1.8951707E-1,3.7660864E-1,-6.9775455E-2,-3.880464E-1,-8.5952535E-2,-3.837452E-1,-7.3592025E-3,1.4428924E-1,-1.0432534E-1,4.080122E-1,2.0405759E-1,-3.4951767E-1,1.543808E-1,-2.601091E-1,3.097355E-1,6.611303E-1,1.1394401E-1,-2.753338E-1,-1.1352559E-1,7.175441E-2,-1.3938245E-1,-4.3584648E-1,1.8586478E-1,2.1110544E-1,-2.1151237E-2,-2.9090494E-1,-3.503986E-1,-2.2378567E-1,7.274632E-2,-1.9227488E-1,2.1163967E-1,-1.3481345E-2,3.1946983E-2,-1.8424895E-1,-3.7419073E-2,-1.4901431E-1,-6.1340764E-2,4.1675396E-2,-3.2964624E-2,3.0358436E-2,-6.3845076E-2,5.578753E-3,-6.536274E-2,5.7230327E-2,1.2321358E-1,-5.00705E-2,3.0640703E-2],"categories":[],"categories_nodes":[],"categories_segments":[],"categories_sizes":[],"default_left":[0,0,0,0,0,0,0,0,0,0,0,0,0,0,0,0,0,0,0,0,0,0,0,0,0,0,0,0,0,0,0,0,0,0,0,0,0,0,0,0,0,0,0,0,0,0,0,0,0,0,0,0,0,0,0,0,0,0,0,0,0,0,0,0,0,0,0,0,0,0,0,0,0,0,0,0,0,0,0,0,0,0,0,0,0,0,0,0,0,0,0,0,0,0,0,0,0,0,0,0,0,0,0,0,0,0,0,0,0,0,0,0,0,0,0,0,0,0,0,0,0,0,0],"id":8,"left_children":[1,3,5,7,9,11,13,15,17,19,21,23,25,27,29,31,33,35,37,39,41,43,45,47,49,51,53,55,57,59,61,63,65,67,69,71,73,75,77,79,-1,81,83,85,87,89,91,93,95,97,99,-1,101,103,105,107,109,111,113,115,117,119,121,-1,-1,-1,-1,-1,-1,-1,-1,-1,-1,-1,-1,-1,-1,-1,-1,-1,-1,-1,-1,-1,-1,-1,-1,-1,-1,-1,-1,-1,-1,-1,-1,-1,-1,-1,-1,-1,-1,-1,-1,-1,-1,-1,-1,-1,-1,-1,-1,-1,-1,-1,-1,-1,-1,-1,-1,-1,-1,-1,-1],"loss_changes":[5.117833E2,1.8823383E2,3.2908514E2,1.0594556E2,3.882769E1,4.0466675E1,2.7881384E2,4.961383E1,3.342816E1,1.6332836E1,1.1155006E1,1.682513E1,1.5101898E1,2.061502E2,1.2830136E2,4.2240112E1,2.862778E1,3.0980179E1,1.5848774E1,4.6711206E0,1.4656544E1,2.1668686E1,1.0390118E1,1.1390999E1,9.839996E0,7.069748E0,1.4756027E1,1.2359468E2,1.767792E2,8.244907E1,5.7354492E1,1.6679382E1,3.1875534E1,3.7519363E1,1.3122334E1,2.2307693E1,1.9137089E1,9.73827E0,1.440604E1,2.5362434E0,0E0,1.0956308E1,1.1656633E1,7.1316605E0,1.3588904E1,8.789754E0,4.947956E0,1.4680702E1,2.1422352E1,1.5506979E1,7.439487E0,0E0,1.2007141E-1,1.5177719E1,9.729237E0,8.907846E1,3.1360733E1,9.047891E1,3.6873238E1,4.552378E1,7.051308E1,3.8606873E1,3.26234E1,0E0,0E0,0E0,0E0,0E0,0E0,0E0,0E0,0E0,0E0,0E0,0E0,0E0,0E0,0E0,0E0,0E0,0E0,0E0,0E0,0E0,0E0,0E0,0E0,0E0,0E0,0E0,0E0,0E0,0E0,0E0,0E0,0E0,0E0,0E0,0E0,0E0,0E0,0E0,0E0,0E0,0E0,0E0,0E0,0E0,0E0,0E0,0E0,0E0,0E0,0E0,0E0,0E0,0E0,0E0,0E0,0E0,0E0,0E0,0E0],"parents":[2147483647,0,0,1,1,2,2,3,3,4,4,5,5,6,6,7,7,8,8,9,9,10,10,11,11,12,12,13,13,14,14,15,15,16,16,17,17,18,18,19,19,20,20,21,21,22,22,23,23,24,24,25,25,26,26,27,27,28,28,29,29,30,30,31,31,32,32,33,33,34,34,35,35,36,36,37,37,38,38,39,39,41,41,42,42,43,43,44,44,45,45,46,46,47,47,48,48,49,49,50,50,52,52,53,53,54,54,55,55,56,56,57,57,58,58,59,59,60,60,61,61,62,62],"right_children":[2,4,6,8,10,12,14,16,18,20,22,24,26,28,30,32,34,36,38,40,42,44,46,48,50,52,54,56,58,60,62,64,66,68,70,72,74,76,78,80,-1,82,84,86,88,90,92,94,96,98,100,-1,102,104,106,108,110,112,114,116,118,120,122,-1,-1,-1,-1,-1,-1,-1,-1,-1,-1,-1,-1,-1,-1,-1,-1,-1,-1,-1,-1,-1,-1,-1,-1,-1,-1,-1,-1,-1,-1,-1,-1,-1,-1,-1,-1,-1,-1,-1,-1,-1,-1,-1,-1,-1,-1,-1,-1,-1,-1,-1,-1,-1,-1,-1,-1,-1,-1,-1,-1],"split_conditions":[2E0,1E0,1E0,1E0,3.3333335E-2,6E0,1E0,1.2E1,3.6666667E-1,8E0,1.3E1,1E0,6E0,3.3333335E-2,2.2093023E-1,1E0,1E0,1E0,1E0,1E0,1.627907E-1,8E0,6E0,3.3333335E-2,8E0,3E0,3.255814E-1,1E0,1E0,3.3333335E-2,8E0,6E0,1E0,1.744186E-1,2.3255815E-1,8E0,3.3333335E-2,2.0930232E-1,8E0,3.0232558E-1,1.5321735E-1,1E0,8E0,7E0,7.6666665E-1,2E-1,6.666667E-2,8E0,1E0,1E0,1E0,2.2701326E-1,1.8604651E-1,5E0,1E0,1E0,2.2093023E-1,3E0,5E0,1E0,6E0,3.8372093E-1,7E0,-1.8041141E-1,-2.5858918E-1,-1.4226726E-1,1.3715476E-1,3.305961E-1,-1.6115765E-1,-7.189513E-2,-4.054093E-1,-4.8955996E-2,-1.217339E-1,1.8649147E-1,-4.1176796E-1,-2.4077724E-1,1.8951707E-1,3.7660864E-1,-6.9775455E-2,-3.880464E-1,-8.5952535E-2,-3.837452E-1,-7.3592025E-3,1.4428924E-1,-1.0432534E-1,4.080122E-1,2.0405759E-1,-3.4951767E-1,1.543808E-1,-2.601091E-1,3.097355E-1,6.611303E-1,1.1394401E-1,-2.753338E-1,-1.1352559E-1,7.175441E-2,-1.3938245E-1,-4.3584648E-1,1.8586478E-1,2.1110544E-1,-2.1151237E-2,-2.9090494E-1,-3.503986E-1,-2.2378567E-1,7.274632E-2,-1.9227488E-1,2.1163967E-1,-1.3481345E-2,3.1946983E-2,-1.8424895E-1,-3.7419073E-2,-1.4901431E-1,-6.1340764E-2,4.1675396E-2,-3.2964624E-2,3.0358436E-2,-6.3845076E-2,5.578753E-3,-6.536274E-2,5.7230327E-2,1.2321358E-1,-5.00705E-2,3.0640703E-2],"split_indices":[10,13,2,0,12,17,1,15,12,15,15,6,15,11,3,14,7,5,1,5,3,17,17,11,15,16,3,9,13,11,17,16,6,3,3,17,12,3,17,3,0,7,17,15,12,12,11,15,8,5,7,0,3,10,14,14,3,10,17,9,16,3,15,0,0,0,0,0,0,0,0,0,0,0,0,0,0,0,0,0,0,0,0,0,0,0,0,0,0,0,0,0,0,0,0,0,0,0,0,0,0,0,0,0,0,0,0,0,0,0,0,0,0,0,0,0,0,0,0,0,0,0,0],"split_type":[0,0,0,0,0,0,0,0,0,0,0,0,0,0,0,0,0,0,0,0,0,0,0,0,0,0,0,0,0,0,0,0,0,0,0,0,0,0,0,0,0,0,0,0,0,0,0,0,0,0,0,0,0,0,0,0,0,0,0,0,0,0,0,0,0,0,0,0,0,0,0,0,0,0,0,0,0,0,0,0,0,0,0,0,0,0,0,0,0,0,0,0,0,0,0,0,0,0,0,0,0,0,0,0,0,0,0,0,0,0,0,0,0,0,0,0,0,0,0,0,0,0,0],"sum_hessian":[5.9314E4,4.384394E3,5.4929605E4,4.0725342E3,3.1186008E2,9.681105E2,5.3961492E4,2.3341147E3,1.7384194E3,1.7941106E2,1.3244904E2,4.8247324E2,4.8563724E2,2.3353686E4,3.0607807E4,2.0527026E3,2.8141205E2,1.6844043E3,5.401522E1,1.54204445E1,1.6399062E2,1.0454163E2,2.7907394E1,4.208265E2,6.1646706E1,1.2951724E2,3.5612E2,1.6110887E4,7.2428E3,1.807165E4,1.2536156E4,1.0126816E3,1.040021E3,5.7676422E1,2.2373563E2,1.6226709E3,6.1733383E1,1.7504173E1,3.6511044E1,1.3758675E1,1.6617696E0,3.3652298E1,1.3033832E2,8.711983E1,1.7421808E1,1.363445E1,1.42729435E1,2.2170612E2,1.991204E2,1.3062615E1,4.858409E1,1.468472E0,1.2804877E2,3.3574973E2,2.0370277E1,1.5537124E4,5.7376227E2,4.819151E3,2.423649E3,1.2209261E4,5.86239E3,9.627713E3,2.9084434E3,5.223442E2,4.903374E2,1.00264075E3,3.7380306E1,3.6035748E1,2.1640675E1,2.1348676E2,1.0248874E1,1.0169472E3,6.0572363E2,5.742629E1,4.307097E0,1.0295594E1,7.2085795E0,2.8524956E1,7.98609E0,9.579951E0,4.178724E0,8.670651E0,2.4981647E1,1.1108008E2,1.925824E1,2.1929493E1,6.519033E1,8.675364E0,8.746446E0,2.2217238E0,1.1412726E1,1.2063626E1,2.2093167E0,7.9738014E1,1.419681E2,6.2279415E1,1.3684099E2,7.599347E0,5.4632683E0,2.5700163E1,2.2883928E1,6.2137295E1,6.5911476E1,3.198736E2,1.5876141E1,8.016996E0,1.2353282E1,7.7733384E3,7.7637856E3,3.70727E2,2.0303532E2,1.5739004E3,3.2452505E3,1.3730815E3,1.0505674E3,1.1729572E4,4.7968793E2,4.0277842E3,1.834606E3,8.749441E3,8.782719E2,5.565691E2,2.3518743E3],"tree_param":{"num_deleted":"0","num_feature":"18","num_nodes":"123","size_leaf_vector":"1"}},{"base_weights":[-3.183639E-3,-1.02148265E-1,5.9652884E-2,-3.9918074E-1,-7.0489645E-2,1.5645747E-1,1.1571978E-2,-5.257069E-1,-2.0965566E-1,-9.539045E-2,1.7053302E-1,2.8173942E-2,1.9300158E-1,-3.7808535E-1,2.4479581E-2,-6.89477E-1,-4.0784422E-1,-1.6332006E-1,-1.1299015E0,-3.5491634E-2,-2.116791E-1,3.0229124E-1,9.605562E-2,1.3985218E-1,-4.9526084E-2,1.6535543E-1,2.8350514E-1,-7.8458995E-2,-5.732269E-1,-4.5702517E-2,8.6034596E-2,7.084444E-1,-7.007465E-1,-2.3233375E-1,-6.5310705E-1,-1.960419E-1,7.948564E-1,-3.5139456E-1,-2.2815358E-2,-6.624828E-1,-1.8746253E-2,-9.477525E-2,-3.6671126E-1,2.496482E-1,7.623022E-1,2.3150826E-2,2.2892849E-1,3.3726636E-1,-9.777186E-3,-1.687208E-1,1.4505851E-1,2.0974624E-1,7.846406E-2,4.8601887E-1,2.595097E-1,1.1809666E-1,-3.3770308E-1,-3.737648E-1,-8.730876E-1,-7.706992E-2,1.4348333E-1,-1.8519074E-2,1.7273019E-1,6.9864196E-1,-2.3511982E-1,-2.781178E-1,-1.8417333E-1,-1.9189894E-1,-1.1942342E-2,-2.0057145E-1,3.5809323E-1,-2.9848105E-1,-5.076553E-2,6.6729975E-1,1.11774586E-1,-2.1333972E-1,2.9634137E-2,-4.002645E-4,-1.4579563E-1,-5.6098707E-2,1.4784971E-2,-1.4403503E-1,-7.103358E-2,-3.6754292E-1,7.998208E-2,1.6133383E-1,3.0890408E-1,3.193828E-2,-5.336697E-2,-4.4431273E-2,1.03228964E-1,-4.5160004E-1,1.08674444E-1,-3.6328916E-2,1.1936831E-1,2.5695883E-2,-7.858254E-2,-1.10937804E-1,5.4941002E-2,6.954496E-2,1.7155834E-2,-2.506428E-1,2.8212527E-2,9.633441E-2,2.0506573E-1,6.465105E-2,1.0601522E-1,-6.247775E-2,1.33506E-1,-1.2967671E-1,8.920511E-2,-1.3281028E-3,-2.5021496E-1,-2.9431957E-1,-3.1560544E-2,-4.8200306E-2,-8.236763E-3,4.63063E-2,-2.5975826E-1,-1.1043053E-2,1.16275676E-1,4.2523105E-2,1.23666726E-1],"categories":[],"categories_nodes":[],"categories_segments":[],"categories_sizes":[],"default_left":[0,0,0,0,0,0,0,0,0,0,0,0,0,0,0,0,0,0,0,0,0,0,0,0,0,0,0,0,0,0,0,0,0,0,0,0,0,0,0,0,0,0,0,0,0,0,0,0,0,0,0,0,0,0,0,0,0,0,0,0,0,0,0,0,0,0,0,0,0,0,0,0,0,0,0,0,0,0,0,0,0,0,0,0,0,0,0,0,0,0,0,0,0,0,0,0,0,0,0,0,0,0,0,0,0,0,0,0,0,0,0,0,0,0,0,0,0,0,0,0,0,0,0],"id":9,"left_children":[1,3,5,7,9,11,13,15,17,19,21,23,25,27,29,31,33,35,37,39,41,43,45,47,49,51,53,55,57,59,61,63,65,67,69,71,73,-1,-1,75,77,79,81,83,85,87,89,91,93,95,97,99,101,103,105,107,109,111,113,115,117,119,121,-1,-1,-1,-1,-1,-1,-1,-1,-1,-1,-1,-1,-1,-1,-1,-1,-1,-1,-1,-1,-1,-1,-1,-1,-1,-1,-1,-1,-1,-1,-1,-1,-1,-1,-1,-1,-1,-1,-1,-1,-1,-1,-1,-1,-1,-1,-1,-1,-1,-1,-1,-1,-1,-1,-1,-1,-1,-1,-1,-1],"loss_changes":[3.6315833E2,2.1324199E2,1.6625185E2,5.226703E1,1.2302815E2,5.5563995E1,1.2004808E2,2.4988281E1,3.7171623E1,1.2939648E2,1.8808147E1,2.2821795E1,2.3035492E1,4.4702362E1,9.980788E1,9.104675E0,3.2723236E1,2.6343712E1,1.7364616E0,1.2873943E2,1.14430084E2,1.6585827E1,1.1888999E1,3.1876064E1,3.6002632E1,2.7250076E1,1.0356827E1,1.547976E1,2.7384354E1,6.407396E1,1.1156733E2,1.3593093E1,1.0093109E1,3.50062E1,9.879868E0,1.7156494E1,1.5940037E1,0E0,0E0,1.1883163E1,9.717926E1,4.7861755E1,3.9888184E1,1.5910957E1,3.6875916E0,1.33166E1,1.8935362E1,2.1961292E1,2.7947046E1,2.2844368E1,1.163044E1,1.5738373E1,3.413184E1,7.187355E0,7.9003754E0,1.8559181E1,7.9900284E0,4.7593006E1,1.5180069E1,3.8405598E1,1.6984148E1,4.146513E1,4.9875793E1,0E0,0E0,0E0,0E0,0E0,0E0,0E0,0E0,0E0,0E0,0E0,0E0,0E0,0E0,0E0,0E0,0E0,0E0,0E0,0E0,0E0,0E0,0E0,0E0,0E0,0E0,0E0,0E0,0E0,0E0,0E0,0E0,0E0,0E0,0E0,0E0,0E0,0E0,0E0,0E0,0E0,0E0,0E0,0E0,0E0,0E0,0E0,0E0,0E0,0E0,0E0,0E0,0E0,0E0,0E0,0E0,0E0,0E0,0E0,0E0],"parents":[2147483647,0,0,1,1,2,2,3,3,4,4,5,5,6,6,7,7,8,8,9,9,10,10,11,11,12,12,13,13,14,14,15,15,16,16,17,17,18,18,19,19,20,20,21,21,22,22,23,23,24,24,25,25,26,26,27,27,28,28,29,29,30,30,31,31,32,32,33,33,34,34,35,35,36,36,39,39,40,40,41,41,42,42,43,43,44,44,45,45,46,46,47,47,48,48,49,49,50,50,51,51,52,52,53,53,54,54,55,55,56,56,57,57,58,58,59,59,60,60,61,61,62,62],"right_children":[2,4,6,8,10,12,14,16,18,20,22,24,26,28,30,32,34,36,38,40,42,44,46,48,50,52,54,56,58,60,62,64,66,68,70,72,74,-1,-1,76,78,80,82,84,86,88,90,92,94,96,98,100,102,104,106,108,110,112,114,116,118,120,122,-1,-1,-1,-1,-1,-1,-1,-1,-1,-1,-1,-1,-1,-1,-1,-1,-1,-1,-1,-1,-1,-1,-1,-1,-1,-1,-1,-1,-1,-1,-1,-1,-1,-1,-1,-1,-1,-1,-1,-1,-1,-1,-1,-1,-1,-1,-1,-1,-1,-1,-1,-1,-1,-1,-1,-1,-1,-1,-1,-1],"split_conditions":[1E0,2E0,5E0,1E1,1E0,1.627907E-1,5E0,1.627907E-1,1E0,3.3333335E-2,1E0,3E0,1E0,1E0,1E0,3E0,6E0,5E-1,1E0,1E0,7E0,3.0232558E-1,1.6666667E-1,1E0,1E0,1E-1,3E0,6E0,3.3333335E-2,3.0232558E-1,1E1,2E0,1.1627907E-1,6E0,1E0,1E0,5.3333336E-1,-3.5139456E-1,-2.2815358E-2,7.6666665E-1,1E0,2.2093023E-1,1E0,5E0,7E-1,8E0,1.5116279E-1,4E0,1E0,1E0,7E0,1.3E1,1E0,1E0,5E0,6.666667E-2,5E-1,8E0,1E0,3E0,7.093023E-1,1E0,2.7906978E-1,6.9864196E-1,-2.3511982E-1,-2.781178E-1,-1.8417333E-1,-1.9189894E-1,-1.1942342E-2,-2.0057145E-1,3.5809323E-1,-2.9848105E-1,-5.076553E-2,6.6729975E-1,1.11774586E-1,-2.1333972E-1,2.9634137E-2,-4.002645E-4,-1.4579563E-1,-5.6098707E-2,1.4784971E-2,-1.4403503E-1,-7.103358E-2,-3.6754292E-1,7.998208E-2,1.6133383E-1,3.0890408E-1,3.193828E-2,-5.336697E-2,-4.4431273E-2,1.03228964E-1,-4.5160004E-1,1.08674444E-1,-3.6328916E-2,1.1936831E-1,2.5695883E-2,-7.858254E-2,-1.10937804E-1,5.4941002E-2,6.954496E-2,1.7155834E-2,-2.506428E-1,2.8212527E-2,9.633441E-2,2.0506573E-1,6.465105E-2,1.0601522E-1,-6.247775E-2,1.33506E-1,-1.2967671E-1,8.920511E-2,-1.3281028E-3,-2.5021496E-1,-2.9431957E-1,-3.1560544E-2,-4.8200306E-2,-8.236763E-3,4.63063E-2,-2.5975826E-1,-1.1043053E-2,1.16275676E-1,4.2523105E-2,1.23666726E-1],"split_indices":[0,10,17,15,6,3,15,3,9,11,7,17,6,14,14,16,16,12,6,2,17,3,12,4,14,11,10,16,11,3,15,17,3,15,5,2,12,0,0,12,9,3,1,15,12,17,3,15,5,8,15,15,2,14,10,12,12,17,13,10,3,5,3,0,0,0,0,0,0,0,0,0,0,0,0,0,0,0,0,0,0,0,0,0,0,0,0,0,0,0,0,0,0,0,0,0,0,0,0,0,0,0,0,0,0,0,0,0,0,0,0,0,0,0,0,0,0,0,0,0,0,0,0],"split_type":[0,0,0,0,0,0,0,0,0,0,0,0,0,0,0,0,0,0,0,0,0,0,0,0,0,0,0,0,0,0,0,0,0,0,0,0,0,0,0,0,0,0,0,0,0,0,0,0,0,0,0,0,0,0,0,0,0,0,0,0,0,0,0,0,0,0,0,0,0,0,0,0,0,0,0,0,0,0,0,0,0,0,0,0,0,0,0,0,0,0,0,0,0,0,0,0,0,0,0,0,0,0,0,0,0,0,0,0,0,0,0,0,0,0,0,0,0,0,0,0,0,0,0],"sum_hessian":[5.839681E4,2.2678535E4,3.5718273E4,2.183216E3,2.049532E4,1.1852522E4,2.386575E4,1.3081361E3,8.750799E2,1.8576707E4,1.9186132E3,2.6282283E3,9.224294E3,7.643101E2,2.3101441E4,5.454223E2,7.6271375E2,8.342517E2,4.082819E1,1.2262008E4,6.314699E3,6.9175977E2,1.2268534E3,1.0780078E3,1.5502205E3,7.0680425E3,2.1562515E3,3.0200482E2,4.6230533E2,1.0794418E4,1.2307022E4,3.8670714E0,5.4155524E2,4.4571014E2,3.170036E2,8.0747186E2,2.6779848E1,3.9177162E1,1.6510271E0,3.1796588E2,1.1944042E4,3.600962E3,2.713737E3,6.2210913E2,6.965065E1,7.9295074E2,4.3390265E2,4.642472E2,6.137606E2,9.6142377E2,5.8879663E2,4.67717E3,2.390873E3,2.2638446E2,1.9298671E3,1.720802E2,1.2992462E2,2.7897946E2,1.8332587E2,9.259729E3,1.5346895E3,5.579278E3,6.727745E3,1.585113E0,2.2819583E0,1.4748906E2,3.940662E2,1.4230704E2,3.034031E2,3.1500378E2,1.9998153E0,2.5058292E1,7.824136E2,5.1337314E0,2.1646116E1,2.989283E2,1.9037565E1,1.15158955E4,4.2814612E2,2.1953132E3,1.4056488E3,1.447586E3,1.2661511E3,6.2624407E0,6.158467E2,3.9496197E1,3.0154453E1,5.6096185E2,2.3198888E2,1.0146018E2,3.3244244E2,5.417362E0,4.5882983E2,4.8266623E2,1.3109436E2,2.5786484E2,7.035589E2,3.994828E1,5.488484E2,4.0856018E3,5.91568E2,3.9186317E1,2.3516868E3,1.24813644E2,1.0157081E2,1.3161709E3,6.1369617E2,8.629648E1,8.5783714E1,1.13365105E2,1.6559505E1,1.5534142E2,1.23638054E2,1.6048181E2,2.2844046E1,3.447904E3,5.811824E3,1.5191744E3,1.5515004E1,5.339686E3,2.3959203E2,5.958412E3,7.693328E2],"tree_param":{"num_deleted":"0","num_feature":"18","num_nodes":"123","size_leaf_vector":"1"}},{"base_weights":[-2.6780264E-3,-3.2834485E-1,9.965101E-3,1.527808E-1,-3.6297873E-1,-2.6136592E-2,1.0310353E-1,4.2650256E-1,-5.393337E-1,-4.1438884E-1,-9.756092E-2,-8.853311E-2,2.9131133E-2,1.367676E-1,-4.5831385E-3,1.074371E0,5.6689903E-2,-1.0146058E0,1.976243E-1,-4.2674017E-1,3.979851E-1,6.109153E-2,-4.385621E-1,-1.7237952E-1,-1.5348092E-2,-3.1533692E-2,9.643262E-2,-3.9878154E-1,1.4411926E-1,1.7282747E-2,-4.8844716E-1,1.9196051E-1,1.3434737E0,-6.383202E-1,4.0034968E-1,-3.5740986E-1,1.7260559E-1,6.540428E-1,-4.068806E-1,-4.4640827E-1,2.1463864E-2,1.1448582E0,-5.5117524E-1,1.1350147E-1,-8.4072274E-1,-8.8110304E-1,5.08096E-2,-6.427343E-1,-1.5595442E-1,-2.923088E-1,1.5805477E-4,1.5743813E-1,-6.391637E-2,5.1940084E-2,1.8653707E-1,-1.3638479E-1,-6.6122276E-1,1.4864978E-1,-6.311297E-1,-1.5390609E-1,6.725005E-2,-5.642631E-1,3.503994E-1,3.0382115E-1,-2.9427102E-1,1.0964936E-1,6.2455976E-1,1.4857347E-1,-3.5554335E-1,3.940374E-1,-3.305608E-2,-2.112847E-1,2.6935282E-1,-1.6082633E-1,-1.03656195E-1,4.1103643E-1,-7.6486066E-2,4.6965197E-1,-2.5385875E-1,4.1321997E-2,-4.1746575E-1,8.495776E-3,2.3861347E-1,5.651509E-2,-4.7698656E-1,-3.845039E-1,-1.790025E-1,-5.9634555E-2,2.3131748E-1,-2.8058562E-1,-9.779232E-2,2.111036E-2,-5.478401E-2,3.8090263E-2,-1.1119642E-1,-6.1947247E-3,3.7849836E-2,-1.16325594E-1,5.86455E-2,-1.2309867E-1,-1.5270853E-2,-7.1888333E-3,3.038209E-2,9.922492E-2,3.308934E-2,1.1021875E-1,-1.1614853E-1,-3.2317057E-1,-7.073977E-2,3.3531282E-2,7.1328886E-2,-4.4020867E-1,-5.592814E-2,-2.9834406E-2,-2.2391681E-1,-4.546074E-4,4.610899E-2,-2.891442E-1,-9.206231E-2,-7.86247E-2,4.1910437E-1],"categories":[],"categories_nodes":[],"categories_segments":[],"categories_sizes":[],"default_left":[0,0,0,0,0,0,0,0,0,0,0,0,0,0,0,0,0,0,0,0,0,0,0,0,0,0,0,0,0,0,0,0,0,0,0,0,0,0,0,0,0,0,0,0,0,0,0,0,0,0,0,0,0,0,0,0,0,0,0,0,0,0,0,0,0,0,0,0,0,0,0,0,0,0,0,0,0,0,0,0,0,0,0,0,0,0,0,0,0,0,0,0,0,0,0,0,0,0,0,0,0,0,0,0,0,0,0,0,0,0,0,0,0,0,0,0,0,0,0,0,0],"id":10,"left_children":[1,3,5,7,9,11,13,15,17,19,21,23,25,27,29,31,33,35,37,39,41,43,45,47,49,51,53,55,57,59,61,63,65,67,69,-1,-1,71,-1,73,75,77,79,81,83,85,87,89,91,93,95,97,99,101,103,105,107,109,111,113,115,117,119,-1,-1,-1,-1,-1,-1,-1,-1,-1,-1,-1,-1,-1,-1,-1,-1,-1,-1,-1,-1,-1,-1,-1,-1,-1,-1,-1,-1,-1,-1,-1,-1,-1,-1,-1,-1,-1,-1,-1,-1,-1,-1,-1,-1,-1,-1,-1,-1,-1,-1,-1,-1,-1,-1,-1,-1,-1,-1],"loss_changes":[2.3687114E2,3.5880234E1,1.862118E2,2.7713833E1,2.7329773E1,1.3763368E2,5.608072E1,2.4980518E1,1.4755772E1,1.7027435E1,1.7706238E1,1.1503084E2,8.641574E1,4.645883E1,3.8998436E1,8.747692E0,1.6399956E1,7.831356E0,1.3035835E1,1.4602356E1,1.8834625E1,1.067795E1,2.2542953E1,6.739633E1,4.2991795E1,6.813158E1,4.0215797E1,1.0918184E1,4.0929672E1,3.017844E1,1.0333275E1,1.0648417E1,2.010521E1,1.4688552E1,2.1515799E1,0E0,0E0,5.2404895E0,0E0,1.416275E1,2.66469E1,1.3632793E1,7.1291895E0,1.2319448E1,9.873202E0,5.456978E0,9.191645E0,2.6983856E1,5.09552E1,1.7481483E1,2.4860308E1,3.3862244E1,4.282452E1,2.516001E1,3.6426422E1,1.0400174E1,1.3844688E1,3.7963562E1,2.4917667E1,2.564616E1,1.6232956E1,1.477462E1,9.229657E0,0E0,0E0,0E0,0E0,0E0,0E0,0E0,0E0,0E0,0E0,0E0,0E0,0E0,0E0,0E0,0E0,0E0,0E0,0E0,0E0,0E0,0E0,0E0,0E0,0E0,0E0,0E0,0E0,0E0,0E0,0E0,0E0,0E0,0E0,0E0,0E0,0E0,0E0,0E0,0E0,0E0,0E0,0E0,0E0,0E0,0E0,0E0,0E0,0E0,0E0,0E0,0E0,0E0,0E0,0E0,0E0,0E0,0E0],"parents":[2147483647,0,0,1,1,2,2,3,3,4,4,5,5,6,6,7,7,8,8,9,9,10,10,11,11,12,12,13,13,14,14,15,15,16,16,17,17,18,18,19,19,20,20,21,21,22,22,23,23,24,24,25,25,26,26,27,27,28,28,29,29,30,30,31,31,32,32,33,33,34,34,37,37,39,39,40,40,41,41,42,42,43,43,44,44,45,45,46,46,47,47,48,48,49,49,50,50,51,51,52,52,53,53,54,54,55,55,56,56,57,57,58,58,59,59,60,60,61,61,62,62],"right_children":[2,4,6,8,10,12,14,16,18,20,22,24,26,28,30,32,34,36,38,40,42,44,46,48,50,52,54,56,58,60,62,64,66,68,70,-1,-1,72,-1,74,76,78,80,82,84,86,88,90,92,94,96,98,100,102,104,106,108,110,112,114,116,118,120,-1,-1,-1,-1,-1,-1,-1,-1,-1,-1,-1,-1,-1,-1,-1,-1,-1,-1,-1,-1,-1,-1,-1,-1,-1,-1,-1,-1,-1,-1,-1,-1,-1,-1,-1,-1,-1,-1,-1,-1,-1,-1,-1,-1,-1,-1,-1,-1,-1,-1,-1,-1,-1,-1,-1,-1,-1,-1],"split_conditions":[4E0,4E0,2.4418604E-1,5E0,3.0232558E-1,1E1,8E0,1.744186E-1,2.4418604E-1,1E0,1E0,1E0,1E0,1E0,1E0,1.2790698E-1,2.3255815E-1,1E0,1E0,1E0,5E0,5.5813956E-1,3.3333335E-2,1E0,2E0,3E0,1.9767442E-1,1E0,7.093023E-1,7E0,3.9534885E-1,3.3333335E-2,3E0,1E0,2E0,-3.5740986E-1,1.7260559E-1,3E0,-4.068806E-1,3E0,2E0,1E0,3.3333335E-2,4.651163E-1,1E0,3E0,4.5348838E-1,3E0,3E0,5E0,1E0,1.0465116E-1,9.3023255E-2,3E0,6E0,2.6744187E-1,1E0,3.255814E-1,7.906977E-1,3.8372093E-1,1E0,1E0,9.6666664E-1,3.0382115E-1,-2.9427102E-1,1.0964936E-1,6.2455976E-1,1.4857347E-1,-3.5554335E-1,3.940374E-1,-3.305608E-2,-2.112847E-1,2.6935282E-1,-1.6082633E-1,-1.03656195E-1,4.1103643E-1,-7.6486066E-2,4.6965197E-1,-2.5385875E-1,4.1321997E-2,-4.1746575E-1,8.495776E-3,2.3861347E-1,5.651509E-2,-4.7698656E-1,-3.845039E-1,-1.790025E-1,-5.9634555E-2,2.3131748E-1,-2.8058562E-1,-9.779232E-2,2.111036E-2,-5.478401E-2,3.8090263E-2,-1.1119642E-1,-6.1947247E-3,3.7849836E-2,-1.16325594E-1,5.86455E-2,-1.2309867E-1,-1.5270853E-2,-7.1888333E-3,3.038209E-2,9.922492E-2,3.308934E-2,1.1021875E-1,-1.1614853E-1,-3.2317057E-1,-7.073977E-2,3.3531282E-2,7.1328886E-2,-4.4020867E-1,-5.592814E-2,-2.9834406E-2,-2.2391681E-1,-4.546074E-4,4.610899E-2,-2.891442E-1,-9.206231E-2,-7.86247E-2,4.1910437E-1],"split_indices":[15,16,3,17,3,15,17,3,3,5,14,1,14,2,9,3,3,13,0,12,16,3,12,2,10,17,3,7,3,15,3,11,17,8,17,0,0,10,0,15,15,6,11,3,7,15,3,10,17,17,6,3,3,10,17,3,4,3,3,3,4,1,12,0,0,0,0,0,0,0,0,0,0,0,0,0,0,0,0,0,0,0,0,0,0,0,0,0,0,0,0,0,0,0,0,0,0,0,0,0,0,0,0,0,0,0,0,0,0,0,0,0,0,0,0,0,0,0,0,0,0],"split_type":[0,0,0,0,0,0,0,0,0,0,0,0,0,0,0,0,0,0,0,0,0,0,0,0,0,0,0,0,0,0,0,0,0,0,0,0,0,0,0,0,0,0,0,0,0,0,0,0,0,0,0,0,0,0,0,0,0,0,0,0,0,0,0,0,0,0,0,0,0,0,0,0,0,0,0,0,0,0,0,0,0,0,0,0,0,0,0,0,0,0,0,0,0,0,0,0,0,0,0,0,0,0,0,0,0,0,0,0,0,0,0,0,0,0,0,0,0,0,0,0,0],"sum_hessian":[5.7526844E4,2.1489275E3,5.5377918E4,1.4407399E2,2.0048534E3,3.9909273E4,1.5468645E4,1.0351786E2,4.055612E1,1.6790654E3,3.257879E2,1.8745385E4,2.1163889E4,1.178443E4,3.6842148E3,3.692479E1,6.659307E1,2.4426477E1,1.6129644E1,1.654387E3,2.4678581E1,2.2290236E2,1.0288556E2,8.735717E3,1.0009668E4,1.113103E4,1.0032858E4,1.5885727E2,1.1625572E4,3.5258457E3,1.583692E2,9.02953E0,2.7895258E1,2.1749645E1,4.484343E1,2.2208216E1,2.2182617E0,1.2915208E1,3.214436E0,1.5848447E3,6.954217E1,1.3695621E1,1.098296E1,2.1148576E2,1.1416589E1,5.3607544E1,4.9278015E1,2.9347705E2,8.442239E3,5.2975085E2,9.479917E3,1.6278302E3,9.5032E3,6.7174404E3,3.3154177E3,8.019527E1,7.8662E1,1.1558831E4,6.6741165E1,7.9614813E2,2.7296975E3,1.4554225E2,1.2826947E1,5.392414E0,3.6371152E0,1.2643869E1,1.52513895E1,7.1083593E0,1.4641285E1,1.5517416E1,2.9326014E1,1.6779245E0,1.1237283E1,8.3674475E2,7.4810004E2,1.1155768E1,5.83864E1,1.1483287E1,2.2123337E0,6.4948115E0,4.488148E0,1.8892606E2,2.2559713E1,5.1253037E0,6.291285E0,2.0803127E1,3.2804417E1,3.7133842E1,1.2144171E1,1.5155354E2,1.419235E2,8.894625E2,7.552777E3,8.330655E1,4.4644427E2,8.1371094E3,1.3428076E3,1.0559022E2,1.52224E3,3.4297137E2,9.160229E3,2.6463591E3,4.0710813E3,1.1454222E3,2.1699954E3,2.649832E1,5.369695E1,3.8996265E1,3.966574E1,8.177065E3,3.3817664E3,2.2372177E1,4.4368984E1,7.301997E2,6.594843E1,1.5208744E3,1.2088231E3,5.594808E1,8.959418E1,8.564545E0,4.2624025E0],"tree_param":{"num_deleted":"0","num_feature":"18","num_nodes":"121","size_leaf_vector":"1"}},{"base_weights":[-2.24141E-3,-2.3797397E-2,1.192893E-1,-2.1648265E-1,-8.584125E-3,8.506004E-2,2.7697703E-1,-2.81293E-1,6.2259838E-2,-1.6976771E-1,6.191736E-3,5.8597878E-2,2.275571E-1,3.4616575E-1,1.2545061E-1,-9.3212795E-1,-2.5914282E-1,3.8081288E-1,-3.1440984E-2,-2.300119E-1,-2.3529202E-2,3.7785966E-2,-5.959222E-2,1.4022689E-1,1.8600577E-2,6.513759E-1,1.9204378E-1,4.7862846E-1,2.7491793E-1,5.654033E-1,9.039427E-2,-1.0196295E0,5.4784924E-1,3.3264157E-1,-2.842325E-1,5.819416E-1,-5.901086E-2,-1.2993313E0,-1.120282E-2,-3.1548566E-1,-1.1206526E-1,1.4499536E-1,-1.4462823E-1,4.7301605E-2,-2.1770379E-1,-7.2764936E-3,-1.4593862E-1,1.08824484E-1,3.161366E-1,-1.8412104E-2,1.4663978E-1,1.5873162E0,5.628002E-1,2.660938E-1,-3.4962248E-2,7.966393E-1,3.3888525E-1,1.8724464E-2,3.5014018E-1,7.7918607E-1,4.1123204E-2,-5.1264095E-1,1.1667608E-1,-2.8280807E-1,-3.8196447E-1,-2.2281998E-1,4.71516E-1,-7.174499E-2,2.2060318E-1,-1.1395708E-1,-4.396818E-2,2.3420013E-1,2.9427528E-2,-2.0025387E-1,5.3047802E-2,-4.286312E-1,-1.140868E-1,-1.5636798E-2,1.841403E-1,-7.075214E-2,-1.4909802E-1,-3.4882668E-3,-9.076416E-2,2.0354787E-2,1.2954943E-1,1.0160517E-1,-5.8808558E-2,-9.447403E-2,1.565977E-2,-3.498568E-1,-5.9127357E-2,-7.027617E-2,4.8493445E-3,-7.0273325E-2,-2.2196498E-2,5.767042E-2,2.04564E-2,7.694452E-2,2.2520138E-1,2.4561197E-2,-1.8240444E-2,-4.9399218E-1,4.6635546E-2,5.826543E-1,2.2979382E-1,1.9165766E-1,-1.9113407E-1,1.5955713E-1,4.7245733E-2,-3.7405092E-1,-1.4306552E-3,3.7855083E-1,1.8875137E-1,-3.8579058E-2,1.3320412E-1,2.7474914E-2,-1.8970096E-1,8.280933E-2,1.793077E-1,3.1660417E-1,1.3612841E-1,-1.3437714E-1,1.3094407E-1,2.6380053E-2,-2.9146656E-1,-1.9490866E-1,4.0986523E-2],"categories":[],"categories_nodes":[],"categories_segments":[],"categories_sizes":[],"default_left":[0,0,0,0,0,0,0,0,0,0,0,0,0,0,0,0,0,0,0,0,0,0,0,0,0,0,0,0,0,0,0,0,0,0,0,0,0,0,0,0,0,0,0,0,0,0,0,0,0,0,0,0,0,0,0,0,0,0,0,0,0,0,0,0,0,0,0,0,0,0,0,0,0,0,0,0,0,0,0,0,0,0,0,0,0,0,0,0,0,0,0,0,0,0,0,0,0,0,0,0,0,0,0,0,0,0,0,0,0,0,0,0,0,0,0,0,0,0,0,0,0,0,0,0,0,0,0],"id":11,"left_children":[1,3,5,7,9,11,13,15,17,19,21,23,25,27,29,31,33,35,37,39,41,43,45,47,49,51,53,55,57,59,61,63,65,67,69,71,73,75,77,79,81,83,85,87,89,91,93,95,97,99,101,103,105,107,109,111,113,115,117,119,121,123,125,-1,-1,-1,-1,-1,-1,-1,-1,-1,-1,-1,-1,-1,-1,-1,-1,-1,-1,-1,-1,-1,-1,-1,-1,-1,-1,-1,-1,-1,-1,-1,-1,-1,-1,-1,-1,-1,-1,-1,-1,-1,-1,-1,-1,-1,-1,-1,-1,-1,-1,-1,-1,-1,-1,-1,-1,-1,-1,-1,-1,-1,-1,-1,-1],"loss_changes":[1.488213E2,1.4143684E2,4.6169365E1,6.3801376E1,1.06508E2,2.6507355E1,1.5954414E1,4.1058365E1,1.9917461E1,3.307917E1,8.514557E1,1.936836E1,1.6449062E1,9.749947E0,7.3506556E0,1.2719521E1,4.1251343E1,1.3449554E1,1.3231767E1,2.6776474E1,2.240433E1,6.7292816E1,6.0041344E1,1.0742603E1,1.8878807E1,6.130089E0,1.7112675E1,1.5943871E1,1.3159302E1,3.916381E0,7.123413E0,5.363846E-1,8.953841E0,2.6241873E1,3.4959137E1,9.938305E0,7.0774794E0,4.204588E-1,1.3052948E1,2.2167084E1,2.1405628E1,1.0129639E1,1.5933008E1,4.7350662E1,1.9202087E1,4.404725E1,3.1844666E1,5.603134E0,7.454298E0,1.3143593E1,1.4372494E1,4.8706627E-1,7.6118393E0,2.206411E1,9.183676E0,7.82563E0,1.2599474E1,7.4634986E0,9.522736E0,1.7650194E0,2.3725402E0,5.2664714E0,6.6293526E0,0E0,0E0,0E0,0E0,0E0,0E0,0E0,0E0,0E0,0E0,0E0,0E0,0E0,0E0,0E0,0E0,0E0,0E0,0E0,0E0,0E0,0E0,0E0,0E0,0E0,0E0,0E0,0E0,0E0,0E0,0E0,0E0,0E0,0E0,0E0,0E0,0E0,0E0,0E0,0E0,0E0,0E0,0E0,0E0,0E0,0E0,0E0,0E0,0E0,0E0,0E0,0E0,0E0,0E0,0E0,0E0,0E0,0E0,0E0,0E0,0E0,0E0,0E0,0E0],"parents":[2147483647,0,0,1,1,2,2,3,3,4,4,5,5,6,6,7,7,8,8,9,9,10,10,11,11,12,12,13,13,14,14,15,15,16,16,17,17,18,18,19,19,20,20,21,21,22,22,23,23,24,24,25,25,26,26,27,27,28,28,29,29,30,30,31,31,32,32,33,33,34,34,35,35,36,36,37,37,38,38,39,39,40,40,41,41,42,42,43,43,44,44,45,45,46,46,47,47,48,48,49,49,50,50,51,51,52,52,53,53,54,54,55,55,56,56,57,57,58,58,59,59,60,60,61,61,62,62],"right_children":[2,4,6,8,10,12,14,16,18,20,22,24,26,28,30,32,34,36,38,40,42,44,46,48,50,52,54,56,58,60,62,64,66,68,70,72,74,76,78,80,82,84,86,88,90,92,94,96,98,100,102,104,106,108,110,112,114,116,118,120,122,124,126,-1,-1,-1,-1,-1,-1,-1,-1,-1,-1,-1,-1,-1,-1,-1,-1,-1,-1,-1,-1,-1,-1,-1,-1,-1,-1,-1,-1,-1,-1,-1,-1,-1,-1,-1,-1,-1,-1,-1,-1,-1,-1,-1,-1,-1,-1,-1,-1,-1,-1,-1,-1,-1,-1,-1,-1,-1,-1,-1,-1,-1,-1,-1,-1],"split_conditions":[1E0,2E0,1E0,1.2E1,1.2790698E-1,5E0,1.2E1,1E0,1E0,4E0,3.3333335E-2,1E0,3E0,1E-1,3E0,5E-1,4E0,1.9767442E-1,2E0,1E0,2.6666668E-1,1E0,7E0,8E0,2.4418604E-1,9.3023255E-2,1.2E1,1E0,1E0,8.666667E-1,2E0,1E0,1E0,1E0,1E0,6E0,1E0,3.3333335E-2,1.3333334E-1,3.3333335E-2,6E0,1.6666667E-1,6.9767445E-2,1E0,1E0,1.5116279E-1,1E0,4E0,3.139535E-1,1E0,1E0,1E0,6E0,1E0,8.139535E-2,3E0,1.627907E-1,8E0,6E0,1E0,1E-1,4E0,9.3023255E-2,-2.8280807E-1,-3.8196447E-1,-2.2281998E-1,4.71516E-1,-7.174499E-2,2.2060318E-1,-1.1395708E-1,-4.396818E-2,2.3420013E-1,2.9427528E-2,-2.0025387E-1,5.3047802E-2,-4.286312E-1,-1.140868E-1,-1.5636798E-2,1.841403E-1,-7.075214E-2,-1.4909802E-1,-3.4882668E-3,-9.076416E-2,2.0354787E-2,1.2954943E-1,1.0160517E-1,-5.8808558E-2,-9.447403E-2,1.565977E-2,-3.498568E-1,-5.9127357E-2,-7.027617E-2,4.8493445E-3,-7.0273325E-2,-2.2196498E-2,5.767042E-2,2.04564E-2,7.694452E-2,2.2520138E-1,2.4561197E-2,-1.8240444E-2,-4.9399218E-1,4.6635546E-2,5.826543E-1,2.2979382E-1,1.9165766E-1,-1.9113407E-1,1.5955713E-1,4.7245733E-2,-3.7405092E-1,-1.4306552E-3,3.7855083E-1,1.8875137E-1,-3.8579058E-2,1.3320412E-1,2.7474914E-2,-1.8970096E-1,8.280933E-2,1.793077E-1,3.1660417E-1,1.3612841E-1,-1.3437714E-1,1.3094407E-1,2.6380053E-2,-2.9146656E-1,-1.9490866E-1,4.0986523E-2],"split_indices":[6,10,5,15,3,10,15,2,7,10,11,7,16,12,16,11,16,3,17,0,12,9,17,17,3,3,15,8,13,12,17,0,1,14,1,16,0,11,11,11,16,12,3,2,2,3,0,17,3,1,2,0,17,4,3,10,3,17,16,14,11,10,3,0,0,0,0,0,0,0,0,0,0,0,0,0,0,0,0,0,0,0,0,0,0,0,0,0,0,0,0,0,0,0,0,0,0,0,0,0,0,0,0,0,0,0,0,0,0,0,0,0,0,0,0,0,0,0,0,0,0,0,0,0,0,0,0],"split_type":[0,0,0,0,0,0,0,0,0,0,0,0,0,0,0,0,0,0,0,0,0,0,0,0,0,0,0,0,0,0,0,0,0,0,0,0,0,0,0,0,0,0,0,0,0,0,0,0,0,0,0,0,0,0,0,0,0,0,0,0,0,0,0,0,0,0,0,0,0,0,0,0,0,0,0,0,0,0,0,0,0,0,0,0,0,0,0,0,0,0,0,0,0,0,0,0,0,0,0,0,0,0,0,0,0,0,0,0,0,0,0,0,0,0,0,0,0,0,0,0,0,0,0,0,0,0,0],"sum_hessian":[5.6806137E4,4.8248984E4,8.557151E3,3.5297202E3,4.4719266E4,7.0322095E3,1.5249418E3,2.86384E3,6.6587994E2,3.7543345E3,4.096493E4,5.932025E3,1.1001848E3,1.0460286E3,4.7891324E2,9.290645E1,2.7709336E3,1.5065083E2,5.152291E2,2.6585498E3,1.0957847E3,2.7674197E4,1.3290732E4,1.9499459E3,3.9820789E3,8.372012E1,1.0164647E3,3.6384897E2,6.8217957E2,3.4227978E1,4.4468527E2,8.801381E1,4.89264E0,1.1220166E2,2.658732E3,1.0315538E2,4.7495445E1,7.10193E0,5.0812723E2,1.5405016E3,1.1180481E3,4.5809308E2,6.376916E2,2.6681275E4,9.929213E2,8.276957E3,5.013775E3,1.6559531E3,2.9399274E2,3.0897668E3,8.923121E2,5.775242E0,7.794488E1,7.663176E2,2.501471E2,1.0964082E2,2.5420815E2,1.5511949E2,5.270601E2,2.3968338E1,1.0259639E1,1.7798296E1,4.2688696E2,7.114606E1,1.6867746E1,2.2858827E0,2.6067576E0,4.6534336E1,6.566733E1,1.5679222E3,1.0908098E3,7.26878E1,3.0467583E1,1.2754951E1,3.4740494E1,5.73901E0,1.3629203E0,4.7776398E2,3.0363245E1,1.0722847E3,4.6821692E2,7.327456E2,3.8530255E2,3.6197464E2,9.6118454E1,6.0762093E1,5.769295E2,3.5510895E2,2.6326168E4,1.9937235E1,9.7298413E2,7.739414E2,7.503016E3,2.2500256E3,2.7637493E3,5.412519E2,1.1147013E3,2.599024E2,3.4090336E1,9.1772516E2,2.1720415E3,3.4544613E0,8.888576E2,3.0798929E0,2.6953492E0,7.373842E1,4.20646E0,2.2118411E2,5.451335E2,5.101291E0,2.450458E2,2.7292452E1,8.234837E1,4.6630367E1,2.0757777E2,1.4028041E2,1.4839092E1,4.072559E2,1.198042E2,1.1752217E1,1.2216122E1,4.526951E0,5.732688E0,8.059427E0,9.738869E0,1.0027496E1,4.1685947E2],"tree_param":{"num_deleted":"0","num_feature":"18","num_nodes":"127","size_leaf_vector":"1"}},{"base_weights":[-1.7855833E-3,-1.4680432E-2,1.5474647E-1,-2.5982836E-1,-5.444941E-3,3.3379295E-1,8.853226E-2,-5.847285E-1,-2.2740209E-1,-4.5157373E-2,3.9301075E-2,7.281815E-1,2.8866404E-1,4.2910904E-2,2.6768205E-1,-2.8738296E-2,-6.797072E-1,-9.417693E-2,-2.9738626E-1,-1.5195532E-2,-1.5858746E-1,-5.197011E-3,8.687235E-2,7.832788E-1,-1.163869E0,2.3642197E-1,4.8888117E-1,-4.494552E-3,1.5481222E-1,3.3898404E-1,-5.3051632E-2,-3.5096017E-1,8.6269635E-1,2.4799238E-1,-7.0231086E-1,4.8419178E-2,-2.366027E-1,-4.943891E-1,-1.3161229E-1,-4.3821868E-1,-9.232454E-3,-2.564782E-1,-7.3033445E-2,6.082341E-3,-2.0292145E-1,5.0156247E-2,2.018522E-1,8.470004E-1,-6.013477E-1,-5.7178235E-1,3.5685007E-2,2.546225E-1,-4.139741E-1,5.199917E-1,-5.367067E-1,-9.142895E-2,6.958431E-2,-9.7350013E-1,1.6377054E-1,2.5489002E-1,5.2256614E-1,-7.9661316E-1,9.566591E-2,-2.958353E-1,1.7971288E-1,4.4857544E-1,-2.5024056E-1,-2.7211767E-1,-1.6469732E-1,7.033158E-2,-5.2464873E-2,-9.471313E-3,-1.5732814E-1,-1.6133751E-1,7.7996515E-2,-5.597145E-2,1.8471071E-1,-2.0421948E-1,-7.104302E-2,-6.4027956E-4,-8.450933E-2,-1.4366062E-1,-5.3705912E-2,-9.343641E-4,-5.699262E-2,-8.22737E-2,3.6145286E-3,-8.588487E-2,2.5127547E-2,1.1217689E-2,5.5874098E-2,6.2382653E-2,-2.872476E-1,4.758301E-1,2.3102276E-1,1.9981618E-1,-6.3364685E-1,2.2223492E-1,7.127523E-2,-3.9187437E-1,-7.2342046E-3,1.6451666E-1,-1.1099333E-1,-7.006861E-1,5.765767E-2,3.5529217E-1,-3.1758025E-2,-7.13622E-3,6.943122E-2,7.29278E-2,-7.603572E-1,5.317943E-2,-1.3687183E-1,3.458971E-2,1.4653997E-1,-2.7911386E-1,1.6366856E-1,-7.777373E-2,-5.4738754E-1,-4.6183918E-2,1.2872429E-1],"categories":[],"categories_nodes":[],"categories_segments":[],"categories_sizes":[],"default_left":[0,0,0,0,0,0,0,0,0,0,0,0,0,0,0,0,0,0,0,0,0,0,0,0,0,0,0,0,0,0,0,0,0,0,0,0,0,0,0,0,0,0,0,0,0,0,0,0,0,0,0,0,0,0,0,0,0,0,0,0,0,0,0,0,0,0,0,0,0,0,0,0,0,0,0,0,0,0,0,0,0,0,0,0,0,0,0,0,0,0,0,0,0,0,0,0,0,0,0,0,0,0,0,0,0,0,0,0,0,0,0,0,0,0,0,0,0,0,0,0,0],"id":12,"left_children":[1,3,5,7,9,11,13,15,17,19,21,23,25,27,29,31,33,35,37,39,41,43,45,47,49,51,53,55,57,59,61,63,65,-1,67,69,71,73,75,77,79,81,83,85,87,89,91,93,95,-1,-1,97,99,101,103,105,107,109,111,113,115,117,119,-1,-1,-1,-1,-1,-1,-1,-1,-1,-1,-1,-1,-1,-1,-1,-1,-1,-1,-1,-1,-1,-1,-1,-1,-1,-1,-1,-1,-1,-1,-1,-1,-1,-1,-1,-1,-1,-1,-1,-1,-1,-1,-1,-1,-1,-1,-1,-1,-1,-1,-1,-1,-1,-1,-1,-1,-1,-1],"loss_changes":[1.1362678E2,1.17750854E2,5.076442E1,1.9759735E1,8.90674E1,2.0370575E1,2.5562967E1,8.995285E0,1.5994545E1,9.0247116E1,4.9889893E1,1.3220451E1,1.0754814E1,1.3237052E1,1.4537949E1,7.757106E0,5.5435257E0,1.2061003E1,3.671383E1,5.2987812E1,4.6450516E1,2.7161272E1,4.807704E1,1.068499E1,3.7901564E0,9.884869E0,7.110935E0,1.1299968E1,7.664789E0,7.888134E0,1.29413395E1,1.25214E1,8.953006E0,0E0,4.027046E0,1.2390525E1,1.7510185E1,1.6977577E1,2.528894E1,1.4100872E1,4.0065353E1,4.448372E1,2.4220295E1,1.9273438E1,1.5731136E1,1.4992624E1,1.9662048E1,5.070793E0,1.2242434E1,0E0,0E0,6.486088E0,7.9240894E0,5.4677696E0,9.360062E0,1.4987234E1,1.4323207E1,1.1997531E1,6.251543E0,1.1626055E1,5.929611E0,1.0298089E1,8.209035E0,0E0,0E0,0E0,0E0,0E0,0E0,0E0,0E0,0E0,0E0,0E0,0E0,0E0,0E0,0E0,0E0,0E0,0E0,0E0,0E0,0E0,0E0,0E0,0E0,0E0,0E0,0E0,0E0,0E0,0E0,0E0,0E0,0E0,0E0,0E0,0E0,0E0,0E0,0E0,0E0,0E0,0E0,0E0,0E0,0E0,0E0,0E0,0E0,0E0,0E0,0E0,0E0,0E0,0E0,0E0,0E0,0E0,0E0],"parents":[2147483647,0,0,1,1,2,2,3,3,4,4,5,5,6,6,7,7,8,8,9,9,10,10,11,11,12,12,13,13,14,14,15,15,16,16,17,17,18,18,19,19,20,20,21,21,22,22,23,23,24,24,25,25,26,26,27,27,28,28,29,29,30,30,31,31,32,32,34,34,35,35,36,36,37,37,38,38,39,39,40,40,41,41,42,42,43,43,44,44,45,45,46,46,47,47,48,48,51,51,52,52,53,53,54,54,55,55,56,56,57,57,58,58,59,59,60,60,61,61,62,62],"right_children":[2,4,6,8,10,12,14,16,18,20,22,24,26,28,30,32,34,36,38,40,42,44,46,48,50,52,54,56,58,60,62,64,66,-1,68,70,72,74,76,78,80,82,84,86,88,90,92,94,96,-1,-1,98,100,102,104,106,108,110,112,114,116,118,120,-1,-1,-1,-1,-1,-1,-1,-1,-1,-1,-1,-1,-1,-1,-1,-1,-1,-1,-1,-1,-1,-1,-1,-1,-1,-1,-1,-1,-1,-1,-1,-1,-1,-1,-1,-1,-1,-1,-1,-1,-1,-1,-1,-1,-1,-1,-1,-1,-1,-1,-1,-1,-1,-1,-1,-1,-1,-1],"split_conditions":[5E0,4E0,5.6666666E-1,2E0,1E0,3E0,6E0,1E0,5E0,8E0,1E1,7E0,2.7906978E-1,2.5581396E-1,1.2E1,1E0,2E0,5E0,3E0,1E0,3E0,1E0,2.3255815E-1,3.139535E-1,2.0930232E-1,2.6744187E-1,5.116279E-1,2E-1,6.666667E-1,1E0,1.2790698E-1,7E0,1E0,2.4799238E-1,1.5116279E-1,1E0,3E0,6.333333E-1,1E0,1E0,1E0,1.5116279E-1,1E-1,1E0,4E0,1E0,6.27907E-1,5E0,1E0,-5.7178235E-1,3.5685007E-2,8.139535E-2,9E0,1E0,5.4651165E-1,4E0,1E1,6E-1,1E0,8.333333E-1,8.139535E-2,3.3333335E-2,7E0,-2.958353E-1,1.7971288E-1,4.4857544E-1,-2.5024056E-1,-2.7211767E-1,-1.6469732E-1,7.033158E-2,-5.2464873E-2,-9.471313E-3,-1.5732814E-1,-1.6133751E-1,7.7996515E-2,-5.597145E-2,1.8471071E-1,-2.0421948E-1,-7.104302E-2,-6.4027956E-4,-8.450933E-2,-1.4366062E-1,-5.3705912E-2,-9.343641E-4,-5.699262E-2,-8.22737E-2,3.6145286E-3,-8.588487E-2,2.5127547E-2,1.1217689E-2,5.5874098E-2,6.2382653E-2,-2.872476E-1,4.758301E-1,2.3102276E-1,